{"learner":{"attributes":{"best_iteration":"316","best_score":"51.763990554794226","scikit_learn":"{\"_estimator_type\": \"regressor\"}"},"feature_names":[],"feature_types":[],"gradient_booster":{"model":{"cats":{"enc":[],"feature_segments":[],"sorted_idx":[]},"gbtree_model_param":{"num_parallel_tree":"1","num_trees":"347"},"iteration_indptr":[0,1,2,3,4,5,6,7,8,9,10,11,12,13,14,15,16,17,18,19,20,21,22,23,24,25,26,27,28,29,30,31,32,33,34,35,36,37,38,39,40,41,42,43,44,45,46,47,48,49,50,51,52,53,54,55,56,57,58,59,60,61,62,63,64,65,66,67,68,69,70,71,72,73,74,75,76,77,78,79,80,81,82,83,84,85,86,87,88,89,90,91,92,93,94,95,96,97,98,99,100,101,102,103,104,105,106,107,108,109,110,111,112,113,114,115,116,117,118,119,120,121,122,123,124,125,126,127,128,129,130,131,132,133,134,135,136,137,138,139,140,141,142,143,144,145,146,147,148,149,150,151,152,153,154,155,156,157,158,159,160,161,162,163,164,165,166,167,168,169,170,171,172,173,174,175,176,177,178,179,180,181,182,183,184,185,186,187,188,189,190,191,192,193,194,195,196,197,198,199,200,201,202,203,204,205,206,207,208,209,210,211,212,213,214,215,216,217,218,219,220,221,222,223,224,225,226,227,228,229,230,231,232,233,234,235,236,237,238,239,240,241,242,243,244,245,246,247,248,249,250,251,252,253,254,255,256,257,258,259,260,261,262,263,264,265,266,267,268,269,270,271,272,273,274,275,276,277,278,279,280,281,282,283,284,285,286,287,288,289,290,291,292,293,294,295,296,297,298,299,300,301,302,303,304,305,306,307,308,309,310,311,312,313,314,315,316,317,318,319,320,321,322,323,324,325,326,327,328,329,330,331,332,333,334,335,336,337,338,339,340,341,342,343,344,345,346,347],"tree_info":[0,0,0,0,0,0,0,0,0,0,0,0,0,0,0,0,0,0,0,0,0,0,0,0,0,0,0,0,0,0,0,0,0,0,0,0,0,0,0,0,0,0,0,0,0,0,0,0,0,0,0,0,0,0,0,0,0,0,0,0,0,0,0,0,0,0,0,0,0,0,0,0,0,0,0,0,0,0,0,0,0,0,0,0,0,0,0,0,0,0,0,0,0,0,0,0,0,0,0,0,0,0,0,0,0,0,0,0,0,0,0,0,0,0,0,0,0,0,0,0,0,0,0,0,0,0,0,0,0,0,0,0,0,0,0,0,0,0,0,0,0,0,0,0,0,0,0,0,0,0,0,0,0,0,0,0,0,0,0,0,0,0,0,0,0,0,0,0,0,0,0,0,0,0,0,0,0,0,0,0,0,0,0,0,0,0,0,0,0,0,0,0,0,0,0,0,0,0,0,0,0,0,0,0,0,0,0,0,0,0,0,0,0,0,0,0,0,0,0,0,0,0,0,0,0,0,0,0,0,0,0,0,0,0,0,0,0,0,0,0,0,0,0,0,0,0,0,0,0,0,0,0,0,0,0,0,0,0,0,0,0,0,0,0,0,0,0,0,0,0,0,0,0,0,0,0,0,0,0,0,0,0,0,0,0,0,0,0,0,0,0,0,0,0,0,0,0,0,0,0,0,0,0,0,0,0,0,0,0,0,0,0,0,0,0,0,0,0,0,0,0,0,0,0,0,0,0,0,0,0,0,0,0,0,0,0,0,0,0,0,0,0,0,0,0,0,0],"trees":[{"base_weights":[1.0065991E1,-5.84838E1,9.3796295E2,-1.4102046E2,1.4758795E2,8.0434204E2,1.5564626E3,-1.8165312E2,-5.7851112E1,9.058252E1,2.6976077E2,4.758882E2,8.6334125E2,1.3359993E3,8.992135E1,-2.094508E2,-1.529067E2,-8.0367096E1,1.218295E1,3.8337572E0,1.7342525E2,1.4245677E2,3.4980374E2,3.7133228E2,6.537629E2,6.786024E2,9.5124036E2,4.9121056E1,6.984171E1,-2.1256042E2,-9.760411E1,-1.7161873E2,-1.1503954E2,-9.6233986E1,-4.1848457E1,-4.3543687E0,1.2579404E2,-3.5602306E1,5.2781395E1,1.4381763E2,3.2036047E2,7.7300125E-1,1.875004E2,2.7335065E2,4.5291644E2,2.8738205E2,4.286235E2,2.5422403E1,3.691824E1,6.345058E2,9.729927E2,8.7145905E2,1.0850758E3,-1.1341768E1,-1.0049492E1,-6.746361E0,-4.5363126E0,-9.061099E0,-7.6687813E0,-6.403998E0,-2.0974767E0,-7.0477686E0,-4.100196E0,-4.1741853E0,-2.6038725E-2,-1.835137E0,1.3504518E0,3.0366526E0,6.541153E0,-4.623178E0,-8.2466E-1,2.255963E-1,5.4417005E0,5.4200425E0,1.1657274E1,1.2597631E1,1.993701E1,-1.2441233E0,3.7803388E0,7.319197E0,1.2689379E1,1.2360331E1,2.4876421E1,2.1863478E1,3.6749893E1,6.577442E0,1.5648956E1,1.6400404E1,2.627237E1,2.1440174E1,3.3396557E1,2.62703E1,5.298826E1,4.6167217E1,4.075204E1,4.963943E1,5.860731E1],"categories":[],"categories_nodes":[],"categories_segments":[],"categories_sizes":[],"default_left":[0,0,0,0,0,0,0,0,0,0,0,0,0,0,0,0,0,0,0,0,0,0,0,0,0,0,0,0,0,0,0,0,0,0,0,0,0,0,0,0,0,0,0,0,0,0,0,0,0,0,0,0,0,0,0,0,0,0,0,0,0,0,0,0,0,0,0,0,0,0,0,0,0,0,0,0,0,0,0,0,0,0,0,0,0,0,0,0,0,0,0,0,0,0,0,0,0],"id":0,"left_children":[1,3,5,7,9,11,13,15,17,19,21,23,25,27,-1,29,31,33,35,37,39,41,43,45,47,49,51,-1,-1,53,55,57,59,61,63,65,67,69,71,73,75,77,79,81,83,85,87,-1,-1,89,91,93,95,-1,-1,-1,-1,-1,-1,-1,-1,-1,-1,-1,-1,-1,-1,-1,-1,-1,-1,-1,-1,-1,-1,-1,-1,-1,-1,-1,-1,-1,-1,-1,-1,-1,-1,-1,-1,-1,-1,-1,-1,-1,-1,-1,-1],"loss_changes":[2.3809252E9,5.9288154E8,2.115648E8,8.409882E7,6.940394E7,4.066496E7,2.194432E7,1.3328512E7,1.288442E7,4.885889E7,3.2262848E7,5.801432E6,2.8513152E7,3.848128E6,0E0,2.934624E6,5.807008E6,3.774604E6,3.7366805E6,6.4145885E6,1.5083152E7,7.823054E6,1.5218992E7,8.72342E5,1.087428E6,6.9432E6,1.2019456E7,0E0,0E0,1.319744E6,4.721625E4,9.36E5,2.589652E6,2.77458E6,3.1067252E6,1.7631068E6,7.471975E4,1.9982018E6,4.0111585E6,9.137576E6,3.022268E6,5.7153594E5,2.49786E6,6.441896E6,3.329184E6,3.05815E5,1.00634E6,0E0,0E0,3.216048E6,2.317064E6,1.489088E6,2.447392E6,0E0,0E0,0E0,0E0,0E0,0E0,0E0,0E0,0E0,0E0,0E0,0E0,0E0,0E0,0E0,0E0,0E0,0E0,0E0,0E0,0E0,0E0,0E0,0E0,0E0,0E0,0E0,0E0,0E0,0E0,0E0,0E0,0E0,0E0,0E0,0E0,0E0,0E0,0E0,0E0,0E0,0E0,0E0,0E0],"parents":[2147483647,0,0,1,1,2,2,3,3,4,4,5,5,6,6,7,7,8,8,9,9,10,10,11,11,12,12,13,13,15,15,16,16,17,17,18,18,19,19,20,20,21,21,22,22,23,23,24,24,25,25,26,26,29,29,30,30,31,31,32,32,33,33,34,34,35,35,36,36,37,37,38,38,39,39,40,40,41,41,42,42,43,43,44,44,45,45,46,46,49,49,50,50,51,51,52,52],"right_children":[2,4,6,8,10,12,14,16,18,20,22,24,26,28,-1,30,32,34,36,38,40,42,44,46,48,50,52,-1,-1,54,56,58,60,62,64,66,68,70,72,74,76,78,80,82,84,86,88,-1,-1,90,92,94,96,-1,-1,-1,-1,-1,-1,-1,-1,-1,-1,-1,-1,-1,-1,-1,-1,-1,-1,-1,-1,-1,-1,-1,-1,-1,-1,-1,-1,-1,-1,-1,-1,-1,-1,-1,-1,-1,-1,-1,-1,-1,-1,-1,-1],"split_conditions":[7.115E2,2.6275E2,4.07E2,1.595E2,4.7575E2,9.43E2,1.314E3,9.225E1,5.5E1,2.6E1,-8.5E1,9.7E1,-8.5E1,8.67E2,8.992135E1,6.7E1,2.3E1,2.53E2,2.57E2,3.75E2,4.08E2,5.35E2,5.55E2,-1.18E2,6.81E2,1.24275E3,7.04E2,4.9121056E1,6.984171E1,6.075E1,9.4E1,1.2925E2,1.38E2,-4E1,-5.2E1,1.65E2,7E1,-9.6E1,-1.18E2,1.66E2,1.22E2,-1.64E2,-1.88E2,2.25E2,2.25E2,6.81E2,7.38E2,2.5422403E1,3.691824E1,-3.22E2,1.307E3,4.7E-2,1.181E3,-1.1341768E1,-1.0049492E1,-6.746361E0,-4.5363126E0,-9.061099E0,-7.6687813E0,-6.403998E0,-2.0974767E0,-7.0477686E0,-4.100196E0,-4.1741853E0,-2.6038725E-2,-1.835137E0,1.3504518E0,3.0366526E0,6.541153E0,-4.623178E0,-8.2466E-1,2.255963E-1,5.4417005E0,5.4200425E0,1.1657274E1,1.2597631E1,1.993701E1,-1.2441233E0,3.7803388E0,7.319197E0,1.2689379E1,1.2360331E1,2.4876421E1,2.1863478E1,3.6749893E1,6.577442E0,1.5648956E1,1.6400404E1,2.627237E1,2.1440174E1,3.3396557E1,2.62703E1,5.298826E1,4.6167217E1,4.075204E1,4.963943E1,5.860731E1],"split_indices":[14,16,54,16,14,7,8,14,54,54,54,54,54,7,0,54,54,7,7,7,7,7,7,54,7,14,10,0,0,14,54,14,7,54,54,7,54,54,54,54,54,54,54,54,54,7,7,0,0,54,7,41,7,0,0,0,0,0,0,0,0,0,0,0,0,0,0,0,0,0,0,0,0,0,0,0,0,0,0,0,0,0,0,0,0,0,0,0,0,0,0,0,0,0,0,0,0],"split_type":[0,0,0,0,0,0,0,0,0,0,0,0,0,0,0,0,0,0,0,0,0,0,0,0,0,0,0,0,0,0,0,0,0,0,0,0,0,0,0,0,0,0,0,0,0,0,0,0,0,0,0,0,0,0,0,0,0,0,0,0,0,0,0,0,0,0,0,0,0,0,0,0,0,0,0,0,0,0,0,0,0,0,0,0,0,0,0,0,0,0,0,0,0,0,0,0,0],"sum_hessian":[3.7429867E4,3.485578E4,2.5740867E3,2.4887898E4,9.967882E3,2.1186694E3,4.5541733E2,1.6718725E4,8.1691733E3,6.7977954E3,3.1700867E3,3.24E2,1.7946693E3,2.4170866E2,2.1370866E2,8.496425E3,8.222299E3,6.18163E3,1.9875433E3,3.321126E3,3.4766694E3,1.2248347E3,1.945252E3,2.06E2,1.18E2,5.8141736E2,1.213252E3,3.8E1,2.0370866E2,8.265717E3,2.3070866E2,5.50063E3,2.7216694E3,4.3770864E3,1.8045433E3,1.7358347E3,2.5170866E2,1.8394174E3,1.4817086E3,2.895252E3,5.8141736E2,2.9570868E2,9.29126E2,1.119126E3,8.26126E2,8.6E1,1.2E2,4.6E1,7.2E1,5.0841733E2,7.3E1,7.6483466E2,4.4841733E2,3.6920867E3,4.57363E3,3.3E1,1.9770866E2,3.5977954E3,1.9028347E3,2.3089607E3,4.1270868E2,1.0544174E3,3.3226694E3,8.9841736E2,9.06126E2,8.5441736E2,8.8141736E2,1.9E1,2.3270866E2,4.6170868E2,1.3777086E3,7.967087E2,6.85E2,2.0748347E3,8.2041736E2,3.1270868E2,2.6870868E2,2.2070866E2,7.5E1,5.7541736E2,3.5370868E2,1.004126E3,1.15E2,7.85126E2,4.1E1,1.3E1,7.3E1,6.1E1,5.9E1,7.3E1,4.3541733E2,1.3E1,6E1,3.9041733E2,3.7441733E2,2.2370866E2,2.2470866E2],"tree_param":{"num_deleted":"0","num_feature":"56","num_nodes":"97","size_leaf_vector":"1"}},{"base_weights":[8.127811E0,-6.0579422E1,9.197616E2,-1.2776829E2,1.4822078E2,7.642458E2,1.4218566E3,-1.780345E2,-4.7996105E1,9.020206E1,2.6193906E2,5.5635736E2,8.7364923E2,1.2781771E3,8.594622E1,-1.8607272E2,-8.7314835E1,-8.051632E1,3.1781267E1,1.9313742E1,1.6390698E2,1.1331613E2,3.4249542E2,3.9597958E2,6.135352E2,7.688678E2,9.721391E2,4.05454E1,1.2927123E3,-2.0654407E2,-1.6051457E2,-1.0436327E2,4.692164E0,-9.805288E1,-4.093113E1,5.2432942E0,9.383993E1,-2.6320827E1,6.2001118E1,1.4396826E2,2.850132E2,1.7760292E0,1.5709753E2,2.7685748E2,4.3051978E2,2.9609955E2,5.205763E2,4.2570667E2,6.38184E2,4.4703726E2,8.026427E2,9.093222E2,5.503442E1,5.0333397E1,6.525228E1,-1.0844736E1,-9.643667E0,-8.506887E0,-7.025169E0,-6.320726E0,-4.0874753E0,-1.264661E0,4.1917846E-1,-6.966511E0,-4.0598106E0,-3.5947874E0,2.6545122E-1,-1.2015234E0,1.9417152E0,1.6387808E0,5.5348334E0,-3.8570988E0,1.5833762E-1,-8.1785125E-1,4.498652E0,2.6575124E0,8.831389E0,1.2760599E1,2.0176296E1,-1.2212107E0,3.451863E0,6.7899766E0,1.0497588E1,1.27209635E1,2.5252174E1,1.9243835E1,2.6137043E1,5.7064924E0,1.5758229E1,2.1273405E1,3.1092161E1,1.478093E1,2.6114273E1,2.9087631E1,3.5307896E1,1.5446858E1,2.5230825E1,3.8326504E1,4.3411076E1,3.291075E1,4.672271E1],"categories":[],"categories_nodes":[],"categories_segments":[],"categories_sizes":[],"default_left":[0,0,0,0,0,0,0,0,0,0,0,0,0,0,0,0,0,0,0,0,0,0,0,0,0,0,0,0,0,0,0,0,0,0,0,0,0,0,0,0,0,0,0,0,0,0,0,0,0,0,0,0,0,0,0,0,0,0,0,0,0,0,0,0,0,0,0,0,0,0,0,0,0,0,0,0,0,0,0,0,0,0,0,0,0,0,0,0,0,0,0,0,0,0,0,0,0,0,0,0,0],"id":1,"left_children":[1,3,5,7,9,11,13,15,17,19,21,23,25,27,-1,29,31,33,35,37,39,41,43,45,47,49,51,-1,53,55,57,59,61,63,65,67,69,71,73,75,77,79,81,83,85,87,89,91,93,95,97,99,-1,-1,-1,-1,-1,-1,-1,-1,-1,-1,-1,-1,-1,-1,-1,-1,-1,-1,-1,-1,-1,-1,-1,-1,-1,-1,-1,-1,-1,-1,-1,-1,-1,-1,-1,-1,-1,-1,-1,-1,-1,-1,-1,-1,-1,-1,-1,-1,-1],"loss_changes":[2.4575255E9,5.1187507E8,2.1362714E8,1.1067795E8,5.858288E7,4.7313536E7,2.5508992E7,1.2331808E7,2.7688592E7,3.0736404E7,3.5883264E7,6.427408E6,1.3444864E7,1.949504E6,0E0,8.104832E6,2.165331E6,5.258936E6,5.090243E6,5.845941E6,6.923528E6,5.15717E6,1.1119888E7,2.260052E6,2.202432E6,6.936064E6,4.692864E6,0E0,1.904E5,1.17968E6,1.309056E6,5.70296E5,2.4197445E4,3.64384E6,3.3354318E6,2.1310865E6,9.493615E5,2.1742728E6,3.3997265E6,7.342124E6,1.333376E6,5.280932E5,8.25198E5,5.591208E6,3.28872E6,3.45605E5,5.53982E5,6.62166E5,1.39352E6,3.68836E5,7.6976E5,2.410272E6,0E0,0E0,0E0,0E0,0E0,0E0,0E0,0E0,0E0,0E0,0E0,0E0,0E0,0E0,0E0,0E0,0E0,0E0,0E0,0E0,0E0,0E0,0E0,0E0,0E0,0E0,0E0,0E0,0E0,0E0,0E0,0E0,0E0,0E0,0E0,0E0,0E0,0E0,0E0,0E0,0E0,0E0,0E0,0E0,0E0,0E0,0E0,0E0,0E0],"parents":[2147483647,0,0,1,1,2,2,3,3,4,4,5,5,6,6,7,7,8,8,9,9,10,10,11,11,12,12,13,13,15,15,16,16,17,17,18,18,19,19,20,20,21,21,22,22,23,23,24,24,25,25,26,26,28,28,29,29,30,30,31,31,32,32,33,33,34,34,35,35,36,36,37,37,38,38,39,39,40,40,41,41,42,42,43,43,44,44,45,45,46,46,47,47,48,48,49,49,50,50,51,51],"right_children":[2,4,6,8,10,12,14,16,18,20,22,24,26,28,-1,30,32,34,36,38,40,42,44,46,48,50,52,-1,54,56,58,60,62,64,66,68,70,72,74,76,78,80,82,84,86,88,90,92,94,96,98,100,-1,-1,-1,-1,-1,-1,-1,-1,-1,-1,-1,-1,-1,-1,-1,-1,-1,-1,-1,-1,-1,-1,-1,-1,-1,-1,-1,-1,-1,-1,-1,-1,-1,-1,-1,-1,-1,-1,-1,-1,-1,-1,-1,-1,-1,-1,-1,-1,-1],"split_conditions":[7.115E2,2.7925E2,4.07E2,1.565E2,4.7575E2,8.76E2,1.557E3,4.8E1,5.6E1,2.6E1,-8.5E1,8.4175E2,1.113E3,6.55E2,8.594622E1,8.025E1,1.32E2,2.53E2,2.36E2,3.83E2,2.25E2,5.35E2,5.55E2,-9E0,-1.92E2,7.7E1,1.512E3,4.05454E1,9.37E2,6E1,8E0,9.4E1,1.66E2,-4.1E1,-3.9E1,1.03E2,6.4E1,-8.1E1,-1.97E2,2.81E2,3.22E2,-1.79E2,-2.18E2,2.48E2,6.81E2,5.99E2,6.55E2,1.113E3,1.027E3,-2.05E2,2.48E2,-2.79E2,5.503442E1,5.0333397E1,6.525228E1,-1.0844736E1,-9.643667E0,-8.506887E0,-7.025169E0,-6.320726E0,-4.0874753E0,-1.264661E0,4.1917846E-1,-6.966511E0,-4.0598106E0,-3.5947874E0,2.6545122E-1,-1.2015234E0,1.9417152E0,1.6387808E0,5.5348334E0,-3.8570988E0,1.5833762E-1,-8.1785125E-1,4.498652E0,2.6575124E0,8.831389E0,1.2760599E1,2.0176296E1,-1.2212107E0,3.451863E0,6.7899766E0,1.0497588E1,1.27209635E1,2.5252174E1,1.9243835E1,2.6137043E1,5.7064924E0,1.5758229E1,2.1273405E1,3.1092161E1,1.478093E1,2.6114273E1,2.9087631E1,3.5307896E1,1.5446858E1,2.5230825E1,3.8326504E1,4.3411076E1,3.291075E1,4.672271E1],"split_indices":[14,16,54,14,14,13,8,54,54,54,54,14,7,7,0,16,54,7,7,7,54,7,7,54,54,54,13,0,13,14,54,7,54,54,54,54,54,54,54,7,7,54,54,54,7,7,7,7,7,54,54,54,0,0,0,0,0,0,0,0,0,0,0,0,0,0,0,0,0,0,0,0,0,0,0,0,0,0,0,0,0,0,0,0,0,0,0,0,0,0,0,0,0,0,0,0,0,0,0,0,0],"split_type":[0,0,0,0,0,0,0,0,0,0,0,0,0,0,0,0,0,0,0,0,0,0,0,0,0,0,0,0,0,0,0,0,0,0,0,0,0,0,0,0,0,0,0,0,0,0,0,0,0,0,0,0,0,0,0,0,0,0,0,0,0,0,0,0,0,0,0,0,0,0,0,0,0,0,0,0,0,0,0,0,0,0,0,0,0,0,0,0,0,0,0,0,0,0,0,0,0,0,0,0,0],"sum_hessian":[3.9233246E4,3.648445E4,2.7487954E3,2.7602693E4,8.881756E3,2.1006694E3,6.48126E2,1.6932143E4,1.0670551E4,5.882378E3,2.999378E3,7.2641736E2,1.374252E3,4.4041733E2,2.0770866E2,1.5553016E4,1.379126E3,7.580465E3,3.0900867E3,2.999126E3,2.883252E3,1.055126E3,1.944252E3,1.93E2,5.3341736E2,6.70126E2,7.04126E2,1.5E1,4.2541733E2,8.631969E3,6.9210474E3,1.1634174E3,2.1570866E2,5.2522124E3,2.328252E3,2.165252E3,9.2483466E2,1.4497086E3,1.5494174E3,2.4775432E3,4.0570868E2,2.9770868E2,7.5741736E2,1.116126E3,8.28126E2,1.09E2,8.4E1,6.4E1,4.6941733E2,6.5E1,6.05126E2,4.7841733E2,2.2570866E2,2.1E1,4.0441733E2,4.9040474E3,3.7279214E3,4.668504E3,2.2525432E3,5.867087E2,5.767087E2,2.3E1,1.9270866E2,1.5208347E3,3.731378E3,1.394126E3,9.34126E2,1.157126E3,1.008126E3,2.0070866E2,7.24126E2,5.317087E2,9.18E2,4.0770868E2,1.1417086E3,6.56E2,1.8215433E3,3.2670868E2,7.9E1,2.1470866E2,8.3E1,5.4241736E2,2.15E2,1.018126E3,9.8E1,5.5741736E2,2.7070868E2,1.1E1,9.8E1,4.6E1,3.8E1,2.9E1,3.5E1,2.6170868E2,2.0770866E2,2.1E1,4.4E1,3.9841733E2,2.0670866E2,4.6E1,4.3241733E2],"tree_param":{"num_deleted":"0","num_feature":"56","num_nodes":"101","size_leaf_vector":"1"}},{"base_weights":[4.80968E0,-6.045392E1,8.858968E2,-1.2707191E2,1.22916046E2,7.263828E2,1.33426E3,-1.7044733E2,-5.3946007E1,6.2533577E1,2.4981747E2,4.778089E2,8.231965E2,1.1917701E3,1.6275477E3,-1.9220474E2,-1.4517131E2,-7.943151E1,2.2979475E1,4.5163693E0,1.302563E2,1.559431E2,3.0515427E2,3.644058E2,5.3860016E2,7.641436E2,9.727408E2,9.3781165E2,6.192912E1,4.923167E1,8.253322E1,-1.9479573E2,-8.66167E1,-1.5945856E2,-1.1604126E2,-1.1032104E2,-5.9460835E1,-1.3792456E1,6.7648E1,-3.177365E1,4.677638E1,1.0410895E2,2.1960023E2,1.3599118E2,2.4672653E2,2.3884161E2,3.7194427E2,2.8813806E2,4.7159735E2,4.1221558E2,5.698779E2,5.1093182E2,7.8426495E2,9.092032E2,5.164033E1,3.823441E1,5.3900402E1,-1.0371637E1,-9.16891E0,-6.3210406E0,-4.0956836E0,-8.661149E0,-7.369596E0,-6.0826793E0,-3.4475257E0,-6.2926345E0,-3.7273273E0,-3.7843118E0,-1.5446925E0,-1.641522E0,1.7694887E0,5.7609525E0,2.0736709E0,-4.5836444E0,-1.0060709E0,-5.8332944E-1,3.2120416E0,2.7395408E0,7.70673E0,9.88343E0,1.8692984E1,4.8892756E0,7.567435E0,5.468903E0,1.2486102E1,1.0367299E1,1.8537186E1,1.6777464E1,2.4466612E1,7.4964595E0,1.5078605E1,2.0285465E1,2.6592993E1,1.7040606E1,2.7040894E1,2.7234955E1,3.322256E1,2.0025078E1,3.2340187E1,3.8129055E1,4.964084E1,2.4355436E1,4.5890255E1],"categories":[],"categories_nodes":[],"categories_segments":[],"categories_sizes":[],"default_left":[0,0,0,0,0,0,0,0,0,0,0,0,0,0,0,0,0,0,0,0,0,0,0,0,0,0,0,0,0,0,0,0,0,0,0,0,0,0,0,0,0,0,0,0,0,0,0,0,0,0,0,0,0,0,0,0,0,0,0,0,0,0,0,0,0,0,0,0,0,0,0,0,0,0,0,0,0,0,0,0,0,0,0,0,0,0,0,0,0,0,0,0,0,0,0,0,0,0,0,0,0,0,0],"id":2,"left_children":[1,3,5,7,9,11,13,15,17,19,21,23,25,27,29,31,33,35,37,39,41,43,45,47,49,51,53,55,-1,-1,-1,57,59,61,63,65,67,69,71,73,75,77,79,81,83,85,87,89,91,93,95,97,99,101,-1,-1,-1,-1,-1,-1,-1,-1,-1,-1,-1,-1,-1,-1,-1,-1,-1,-1,-1,-1,-1,-1,-1,-1,-1,-1,-1,-1,-1,-1,-1,-1,-1,-1,-1,-1,-1,-1,-1,-1,-1,-1,-1,-1,-1,-1,-1,-1,-1],"loss_changes":[2.1363127E9,4.2255027E8,1.8227174E8,8.046838E7,7.061874E7,4.513728E7,2.6106624E7,8.730048E6,1.8524508E7,2.4545872E7,1.5389328E7,3.476088E6,1.1268928E7,4.252416E6,1.595136E6,2.323616E6,3.049216E6,4.371488E6,3.864147E6,5.1633875E6,6.711032E6,1.966316E6,8.186928E6,1.409164E6,1.127632E6,4.591488E6,5.16416E5,9.9582E5,0E0,0E0,0E0,1.166624E6,2.8319375E4,7.95384E5,6.33618E5,1.538344E6,1.996541E6,1.2098096E6,1.3177145E6,1.2624408E6,1.5883298E6,5.497854E6,2.130882E6,5.17596E5,5.3993E4,3.829884E6,3.805256E6,1.64547E5,8.9858E4,4.76746E5,2.8972E5,8.66176E5,3.339072E6,2.56112E5,0E0,0E0,0E0,0E0,0E0,0E0,0E0,0E0,0E0,0E0,0E0,0E0,0E0,0E0,0E0,0E0,0E0,0E0,0E0,0E0,0E0,0E0,0E0,0E0,0E0,0E0,0E0,0E0,0E0,0E0,0E0,0E0,0E0,0E0,0E0,0E0,0E0,0E0,0E0,0E0,0E0,0E0,0E0,0E0,0E0,0E0,0E0,0E0,0E0],"parents":[2147483647,0,0,1,1,2,2,3,3,4,4,5,5,6,6,7,7,8,8,9,9,10,10,11,11,12,12,13,13,14,14,15,15,16,16,17,17,18,18,19,19,20,20,21,21,22,22,23,23,24,24,25,25,26,26,27,27,31,31,32,32,33,33,34,34,35,35,36,36,37,37,38,38,39,39,40,40,41,41,42,42,43,43,44,44,45,45,46,46,47,47,48,48,49,49,50,50,51,51,52,52,53,53],"right_children":[2,4,6,8,10,12,14,16,18,20,22,24,26,28,30,32,34,36,38,40,42,44,46,48,50,52,54,56,-1,-1,-1,58,60,62,64,66,68,70,72,74,76,78,80,82,84,86,88,90,92,94,96,98,100,102,-1,-1,-1,-1,-1,-1,-1,-1,-1,-1,-1,-1,-1,-1,-1,-1,-1,-1,-1,-1,-1,-1,-1,-1,-1,-1,-1,-1,-1,-1,-1,-1,-1,-1,-1,-1,-1,-1,-1,-1,-1,-1,-1,-1,-1,-1,-1,-1,-1],"split_conditions":[7.115E2,2.635E2,3.1E2,1.5075E2,4.6275E2,8.76E2,1.557E3,8.025E1,6.3E1,1.8E1,-8.4E1,8.4175E2,5.93E-1,8.06E2,4.49E-1,6.7E1,2.4E1,1.9525E2,2.15E2,3.4575E2,1.66E2,7.0275E2,5.595E2,6E0,-1.88E2,9.13E2,1.512E3,9.2775E2,6.192912E1,4.923167E1,8.253322E1,5.95E1,5E0,1.0775E2,7.5E1,8E0,-6E0,1.22E2,1E2,-1.79E2,-2.05E2,3.305E2,3.07E2,5.3825E2,-3E-3,1.49E2,6.82E-1,2.93E2,1.24E-1,1.08025E3,9.61E2,9.2775E2,1.24275E3,4.34E-1,5.164033E1,3.823441E1,5.3900402E1,-1.0371637E1,-9.16891E0,-6.3210406E0,-4.0956836E0,-8.661149E0,-7.369596E0,-6.0826793E0,-3.4475257E0,-6.2926345E0,-3.7273273E0,-3.7843118E0,-1.5446925E0,-1.641522E0,1.7694887E0,5.7609525E0,2.0736709E0,-4.5836444E0,-1.0060709E0,-5.8332944E-1,3.2120416E0,2.7395408E0,7.70673E0,9.88343E0,1.8692984E1,4.8892756E0,7.567435E0,5.468903E0,1.2486102E1,1.0367299E1,1.8537186E1,1.6777464E1,2.4466612E1,7.4964595E0,1.5078605E1,2.0285465E1,2.6592993E1,1.7040606E1,2.7040894E1,2.7234955E1,3.322256E1,2.0025078E1,3.2340187E1,3.8129055E1,4.964084E1,2.4355436E1,4.5890255E1],"split_indices":[14,14,54,14,14,13,8,16,54,54,54,14,24,54,28,54,54,14,14,14,54,14,14,54,54,8,13,14,0,0,0,14,49,16,54,54,54,54,11,54,54,14,54,14,5,54,29,12,5,14,14,14,14,5,0,0,0,0,0,0,0,0,0,0,0,0,0,0,0,0,0,0,0,0,0,0,0,0,0,0,0,0,0,0,0,0,0,0,0,0,0,0,0,0,0,0,0,0,0,0,0,0,0],"split_type":[0,0,0,0,0,0,0,0,0,0,0,0,0,0,0,0,0,0,0,0,0,0,0,0,0,0,0,0,0,0,0,0,0,0,0,0,0,0,0,0,0,0,0,0,0,0,0,0,0,0,0,0,0,0,0,0,0,0,0,0,0,0,0,0,0,0,0,0,0,0,0,0,0,0,0,0,0,0,0,0,0,0,0,0,0,0,0,0,0,0,0,0,0,0,0,0,0,0,0,0,0,0,0],"sum_hessian":[3.714945E4,3.4588363E4,2.5610867E3,2.5371314E4,9.217047E3,1.8909607E3,6.70126E2,1.5924308E4,9.447008E3,6.246378E3,2.9706694E3,5.317087E2,1.359252E3,4.5441733E2,2.1570866E2,8.55426E3,7.3700474E3,7.0960474E3,2.3509607E3,3.3648347E3,2.8815432E3,1.103126E3,1.8675433E3,1.88E2,3.4370868E2,9.7883466E2,3.8041733E2,7.4E1,3.8041733E2,9E0,2.0670866E2,8.348551E3,2.0570866E2,4.9417954E3,2.428252E3,2.7845432E3,4.311504E3,1.2898347E3,1.061126E3,1.8104174E3,1.5544174E3,2.2308347E3,6.507087E2,9.0641736E2,1.9670866E2,9.3941736E2,9.28126E2,1.12E2,7.6E1,7.1E1,2.7270868E2,7.4E1,9.0483466E2,1.9270866E2,1.8770866E2,3.6E1,3.8E1,3.954504E3,4.3940474E3,1.9E1,1.8670866E2,2.302252E3,2.6395432E3,2.168252E3,2.6E2,1.9398347E3,8.447087E2,2.7486694E3,1.5628347E3,9.30126E2,3.5970868E2,3.7541733E2,6.857087E2,2.9370868E2,1.5167086E3,3.5770868E2,1.1967086E3,1.1244174E3,1.1064174E3,5.717087E2,7.9E1,2.62E2,6.4441736E2,5E0,1.9170866E2,7.6041736E2,1.79E2,7.1141736E2,2.1670866E2,1.1E1,1.01E2,4E1,3.6E1,4.8E1,2.3E1,2.2070866E2,5.2E1,4.3E1,3.1E1,8.2383466E2,8.1E1,5E0,1.8770866E2],"tree_param":{"num_deleted":"0","num_feature":"56","num_nodes":"103","size_leaf_vector":"1"}},{"base_weights":[-5.1990275E0,-5.3994335E1,8.144866E2,-1.1606948E2,1.43237E2,7.2975226E2,1.4055717E3,-1.6122055E2,-4.4239136E1,8.9201744E1,2.4393813E2,5.158004E2,8.621646E2,8.833447E2,1.5334446E3,-1.7836696E2,-1.2846164E2,-8.675378E1,-2.8371174E1,7.984826E1,3.082987E2,1.5559295E1,2.6426962E2,4.484371E2,6.326874E2,7.201453E2,9.621877E2,1.6423895E1,9.433572E2,7.755723E1,5.0533916E1,-1.9627898E2,-1.6509741E2,-1.378891E2,-1.0426408E2,-6.975925E0,-9.924905E1,-6.43186E1,-1.4345771E1,5.772455E1,1.3037798E2,8.349394E1,1.8147207E1,-1.5360913E0,1.4897327E2,3.3443118E2,2.2576353E2,3.4878754E2,5.0935678E2,2.0913416E1,6.4937836E2,5.35752E2,7.4601013E2,5.6568806E1,8.956542E2,1.0053462E3,3.1608683E1,-1.0466538E1,-9.462488E0,-8.38582E0,-4.833951E0,-7.900541E0,-6.4115653E0,-5.571848E0,-3.5195103E0,-5.7228217E0,-4.8840936E-2,-5.722036E0,-3.5231416E0,-4.612702E0,-2.1527603E0,-1.1239907E0,2.8212588E0,-3.0974712E0,3.3476586E0,8.702121E0,5.381412E0,-9.8096734E-1,5.101588E0,4.4048653E0,9.122841E0,1.3530444E1,2.1716824E1,1.0481357E1,1.6584288E1,1.4227348E1,2.001454E1,1.758362E1,2.6052237E1,3.134553E1,3.7144398E1,1.5650287E1,2.9592945E1,3.9585392E1,3.4841873E1,3.207078E1,4.6544273E1,5.7018917E1,4.0664513E1],"categories":[],"categories_nodes":[],"categories_segments":[],"categories_sizes":[],"default_left":[0,0,0,0,0,0,0,0,0,0,0,0,0,0,0,0,0,0,0,0,0,0,0,0,0,0,0,0,0,0,0,0,0,0,0,0,0,0,0,0,0,0,0,0,0,0,0,0,0,0,0,0,0,0,0,0,0,0,0,0,0,0,0,0,0,0,0,0,0,0,0,0,0,0,0,0,0,0,0,0,0,0,0,0,0,0,0,0,0,0,0,0,0,0,0,0,0,0,0],"id":3,"left_children":[1,3,5,7,9,11,13,15,17,19,21,23,25,27,29,31,33,35,37,39,41,43,45,47,49,51,53,-1,55,-1,-1,57,59,61,63,65,67,69,71,73,75,77,-1,-1,79,81,83,85,87,-1,89,91,93,-1,95,97,-1,-1,-1,-1,-1,-1,-1,-1,-1,-1,-1,-1,-1,-1,-1,-1,-1,-1,-1,-1,-1,-1,-1,-1,-1,-1,-1,-1,-1,-1,-1,-1,-1,-1,-1,-1,-1,-1,-1,-1,-1,-1,-1],"loss_changes":[1.5545129E9,4.491223E8,1.0834355E8,9.048317E7,4.7763344E7,5.372077E7,1.6856384E7,9.600064E6,7.26348E6,1.1690636E7,1.4232592E7,5.491008E6,1.6062656E7,1.554744E6,4.46528E5,2.639872E6,1.329168E6,2.916902E6,3.954133E6,6.123E6,2.840658E6,1.5587759E6,7.530592E6,2.6676E6,6.79216E5,1.94392E6,6.743744E6,0E0,3.2878E5,0E0,0E0,3.98832E5,1.142176E6,8.02776E5,3.9436E5,2.561262E5,1.098496E6,1.303637E6,3.250378E6,4.218456E6,1.639274E6,9.185025E4,0E0,0E0,1.1639125E5,6.230168E6,3.0426E6,4.84888E5,3.48768E5,0E0,4.8264E4,6.145E5,4.10848E5,0E0,3.876128E6,1.09696E5,0E0,0E0,0E0,0E0,0E0,0E0,0E0,0E0,0E0,0E0,0E0,0E0,0E0,0E0,0E0,0E0,0E0,0E0,0E0,0E0,0E0,0E0,0E0,0E0,0E0,0E0,0E0,0E0,0E0,0E0,0E0,0E0,0E0,0E0,0E0,0E0,0E0,0E0,0E0,0E0,0E0,0E0,0E0],"parents":[2147483647,0,0,1,1,2,2,3,3,4,4,5,5,6,6,7,7,8,8,9,9,10,10,11,11,12,12,13,13,14,14,15,15,16,16,17,17,18,18,19,19,20,20,21,21,22,22,23,23,24,24,25,25,26,26,28,28,31,31,32,32,33,33,34,34,35,35,36,36,37,37,38,38,39,39,40,40,41,41,44,44,45,45,46,46,47,47,48,48,50,50,51,51,52,52,54,54,55,55],"right_children":[2,4,6,8,10,12,14,16,18,20,22,24,26,28,30,32,34,36,38,40,42,44,46,48,50,52,54,-1,56,-1,-1,58,60,62,64,66,68,70,72,74,76,78,-1,-1,80,82,84,86,88,-1,90,92,94,-1,96,98,-1,-1,-1,-1,-1,-1,-1,-1,-1,-1,-1,-1,-1,-1,-1,-1,-1,-1,-1,-1,-1,-1,-1,-1,-1,-1,-1,-1,-1,-1,-1,-1,-1,-1,-1,-1,-1,-1,-1,-1,-1,-1,-1],"split_conditions":[7.115E2,2.845E2,1.557E3,1.33E2,4.8825E2,8.76E2,7.18E-1,1.06E2,1.82E2,5.2E1,3E2,9.61E2,9.73E2,1.2E-2,1.9E-2,6E1,1.3608333E2,5E1,-1.7E-2,1.0952625E2,1.9E1,3.5E4,2.67E2,1.37E-1,1.6E1,9.2775E2,1E-3,1.6423895E1,3.77E-1,7.755723E1,5.0533916E1,3.7E1,1.6441718E0,3.5E4,1.8725E2,1.94E2,1.64875E2,3.1E4,1.778865E0,1.99E2,1.22E2,3.08E2,1.8147207E1,-1.5360913E0,5.1825E2,1.7294374E2,6.54E2,2.56E-1,1.0265476E2,2.0913416E1,6.2E4,1.4E-2,4.7E-2,5.6568806E1,2.16E-1,2.92E-1,3.1608683E1,-1.0466538E1,-9.462488E0,-8.38582E0,-4.833951E0,-7.900541E0,-6.4115653E0,-5.571848E0,-3.5195103E0,-5.7228217E0,-4.8840936E-2,-5.722036E0,-3.5231416E0,-4.612702E0,-2.1527603E0,-1.1239907E0,2.8212588E0,-3.0974712E0,3.3476586E0,8.702121E0,5.381412E0,-9.8096734E-1,5.101588E0,4.4048653E0,9.122841E0,1.3530444E1,2.1716824E1,1.0481357E1,1.6584288E1,1.4227348E1,2.001454E1,1.758362E1,2.6052237E1,3.134553E1,3.7144398E1,1.5650287E1,2.9592945E1,3.9585392E1,3.4841873E1,3.207078E1,4.6544273E1,5.7018917E1,4.0664513E1],"split_indices":[14,16,8,13,14,13,28,14,14,4,13,14,9,5,32,14,18,11,5,17,52,0,11,5,4,14,28,0,40,0,0,13,55,0,16,13,16,0,55,9,12,14,0,0,14,19,13,32,15,0,0,27,41,0,5,43,0,0,0,0,0,0,0,0,0,0,0,0,0,0,0,0,0,0,0,0,0,0,0,0,0,0,0,0,0,0,0,0,0,0,0,0,0,0,0,0,0,0,0],"split_type":[0,0,0,0,0,0,0,0,0,0,0,0,0,0,0,0,0,0,0,0,0,0,0,0,0,0,0,0,0,0,0,0,0,0,0,0,0,0,0,0,0,0,0,0,0,0,0,0,0,0,0,0,0,0,0,0,0,0,0,0,0,0,0,0,0,0,0,0,0,0,0,0,0,0,0,0,0,0,0,0,0,0,0,0,0,0,0,0,0,0,0,0,0,0,0,0,0,0,0],"sum_hessian":[3.886383E4,3.6681156E4,2.1826694E3,2.7900402E4,8.780756E3,1.9109607E3,2.7170868E2,1.7130977E4,1.0769425E4,5.7156694E3,3.0650867E3,7.3241736E2,1.1785433E3,5.5E1,2.1670866E2,1.1242221E4,5.888756E3,2.9258347E3,7.843591E3,5.4829604E3,2.3270866E2,2.5070866E2,2.814378E3,4.6770868E2,2.6470868E2,4.9041733E2,6.88126E2,6E0,4.9E1,2.0770866E2,9E0,4.778339E3,6.463882E3,4.234339E3,1.6544174E3,3.9641733E2,2.5294172E3,2.200378E3,5.6432124E3,3.8148347E3,1.668126E3,4.6E1,1.8670866E2,1.8670866E2,6.4E1,9.9454333E2,1.8198347E3,1.8E2,2.8770868E2,2.1E1,2.4370866E2,6.3E1,4.2741733E2,1.8970866E2,4.9841733E2,3.9E1,1E1,1.6625433E3,3.1157954E3,6.2241733E3,2.3970866E2,1.368252E3,2.8660867E3,1.3634174E3,2.91E2,2E1,3.7641733E2,1.6537086E3,8.757087E2,9.4954333E2,1.2508347E3,5.0620864E3,5.81126E2,2.7270868E2,3.542126E3,5.69126E2,1.099E3,7E0,3.9E1,2.4E1,4E1,6.09126E2,3.8541733E2,1.5818347E3,2.38E2,8.3E1,9.7E1,2.2E1,2.6570868E2,2.0270866E2,4.1E1,1.4E1,4.9E1,2.1370866E2,2.1370866E2,6.3E1,4.3541733E2,2E1,1.9E1],"tree_param":{"num_deleted":"0","num_feature":"56","num_nodes":"99","size_leaf_vector":"1"}},{"base_weights":[5.294435E0,-4.766659E1,8.0579694E2,-1.13015274E2,1.1791152E2,6.487359E2,1.2295625E3,-1.6111198E2,-5.488632E1,6.434411E1,2.192723E2,4.179459E2,7.435507E2,1.1136906E3,7.352914E1,-1.777559E2,-1.3782881E2,-7.789638E1,1.31438875E1,-3.683941E0,1.2782554E2,1.1063796E2,2.8320453E2,2.6716278E2,4.7478223E2,6.9199854E2,9.595918E2,3.0963789E1,1.1274075E3,-1.8700887E2,-1.6295203E2,-1.4773616E2,-1.075707E2,-1.0663835E2,-5.512623E1,-1.3879986E1,7.741385E1,-3.414193E1,3.5676563E1,1.0213166E2,2.0165765E2,8.327789E0,1.542289E2,2.2645602E2,3.7815027E2,1.8011388E2,3.2073807E2,3.180583E2,5.139862E2,5.730126E2,7.4254846E2,4.6356064E1,1.1289824E3,1.1139237E3,7.6583725E1,-1.012537E1,-8.793845E0,-8.93663E0,-7.8638444E0,-8.343584E0,-7.1053033E0,-5.841018E0,-4.2245426E0,-6.4953914E0,-4.288519E0,-3.6866894E0,-1.3240459E0,-1.6673409E0,1.5145887E0,1.5963402E0,4.70695E0,-3.7443955E0,-6.9738173E-1,-5.1128615E-2,4.913332E0,2.348613E0,8.221109E0,8.737391E0,1.496149E1,-1.4505436E0,3.442178E0,5.6412E0,1.090436E1,1.069356E1,2.4132124E1,1.8012604E1,3.0417786E1,2.3519168E0,9.9081335E0,1.2768588E1,2.022141E1,1.1614947E1,2.0108612E1,2.4546638E1,3.2338943E1,1.674849E1,3.0308466E1,3.1804224E1,4.051738E1,3.8633175E1,6.0604694E1,4.7178543E1,5.645738E1],"categories":[],"categories_nodes":[],"categories_segments":[],"categories_sizes":[],"default_left":[0,0,0,0,0,0,0,0,0,0,0,0,0,0,0,0,0,0,0,0,0,0,0,0,0,0,0,0,0,0,0,0,0,0,0,0,0,0,0,0,0,0,0,0,0,0,0,0,0,0,0,0,0,0,0,0,0,0,0,0,0,0,0,0,0,0,0,0,0,0,0,0,0,0,0,0,0,0,0,0,0,0,0,0,0,0,0,0,0,0,0,0,0,0,0,0,0,0,0,0,0,0,0],"id":4,"left_children":[1,3,5,7,9,11,13,15,17,19,21,23,25,27,-1,29,31,33,35,37,39,41,43,45,47,49,51,-1,53,55,57,59,61,63,65,67,69,71,73,75,77,79,81,83,85,87,89,91,93,95,97,-1,99,101,-1,-1,-1,-1,-1,-1,-1,-1,-1,-1,-1,-1,-1,-1,-1,-1,-1,-1,-1,-1,-1,-1,-1,-1,-1,-1,-1,-1,-1,-1,-1,-1,-1,-1,-1,-1,-1,-1,-1,-1,-1,-1,-1,-1,-1,-1,-1,-1,-1],"loss_changes":[1.6201249E9,3.8784925E8,1.5703411E8,7.184554E7,5.506184E7,3.759475E7,1.623904E7,5.42544E6,1.821932E7,2.866592E7,2.432416E7,4.215552E6,1.2996352E7,2.261376E6,0E0,1.092384E6,1.742864E6,5.685856E6,5.1114715E6,3.843657E6,6.49316E6,5.80016E6,1.1805456E7,5.99758E5,2.089568E6,5.552032E6,2.38528E5,0E0,6.016E5,8.33504E5,2.54928E5,4.52112E5,2.99836E5,1.855072E6,2.585648E6,1.7829069E6,6.597145E5,1.4861552E6,3.2129465E6,8.751248E6,2.27246E6,8.8257825E5,2.387062E6,4.35828E6,3.176368E6,1.25158E5,3.67119E5,4.547425E5,5.75384E5,2.170272E6,4.494688E6,0E0,4.0528E4,6.528E3,0E0,0E0,0E0,0E0,0E0,0E0,0E0,0E0,0E0,0E0,0E0,0E0,0E0,0E0,0E0,0E0,0E0,0E0,0E0,0E0,0E0,0E0,0E0,0E0,0E0,0E0,0E0,0E0,0E0,0E0,0E0,0E0,0E0,0E0,0E0,0E0,0E0,0E0,0E0,0E0,0E0,0E0,0E0,0E0,0E0,0E0,0E0,0E0,0E0],"parents":[2147483647,0,0,1,1,2,2,3,3,4,4,5,5,6,6,7,7,8,8,9,9,10,10,11,11,12,12,13,13,15,15,16,16,17,17,18,18,19,19,20,20,21,21,22,22,23,23,24,24,25,25,26,26,28,28,29,29,30,30,31,31,32,32,33,33,34,34,35,35,36,36,37,37,38,38,39,39,40,40,41,41,42,42,43,43,44,44,45,45,46,46,47,47,48,48,49,49,50,50,52,52,53,53],"right_children":[2,4,6,8,10,12,14,16,18,20,22,24,26,28,-1,30,32,34,36,38,40,42,44,46,48,50,52,-1,54,56,58,60,62,64,66,68,70,72,74,76,78,80,82,84,86,88,90,92,94,96,98,-1,100,102,-1,-1,-1,-1,-1,-1,-1,-1,-1,-1,-1,-1,-1,-1,-1,-1,-1,-1,-1,-1,-1,-1,-1,-1,-1,-1,-1,-1,-1,-1,-1,-1,-1,-1,-1,-1,-1,-1,-1,-1,-1,-1,-1,-1,-1,-1,-1,-1,-1],"split_conditions":[7.115E2,2.635E2,4.07E2,1.305E2,4.6275E2,9.2775E2,1.557E3,7.725E1,5.9E1,1.9E1,-8.2E1,-8.8E1,1.512E3,6.55E2,7.352914E1,7E0,3.4E1,1.9525E2,2.03E2,3.75E2,1.57E2,5.8E2,5.55E2,8.67E2,6.55E2,-1.64E2,3.4987213E2,3.0963789E1,1.307E3,6.2E1,4.9E1,-2.9E1,6.7E1,-1.6E1,-6E0,1.22E2,7E1,-8.1E1,-9.9E1,3.34E2,3.16E2,-1.79E2,-2.05E2,3.1E2,1.69E2,5.99E2,-2.99E2,1.18E2,1.82E2,1.194E3,1.113E3,4.6356064E1,5.58E-1,8.06E2,7.6583725E1,-1.012537E1,-8.793845E0,-8.93663E0,-7.8638444E0,-8.343584E0,-7.1053033E0,-5.841018E0,-4.2245426E0,-6.4953914E0,-4.288519E0,-3.6866894E0,-1.3240459E0,-1.6673409E0,1.5145887E0,1.5963402E0,4.70695E0,-3.7443955E0,-6.9738173E-1,-5.1128615E-2,4.913332E0,2.348613E0,8.221109E0,8.737391E0,1.496149E1,-1.4505436E0,3.442178E0,5.6412E0,1.090436E1,1.069356E1,2.4132124E1,1.8012604E1,3.0417786E1,2.3519168E0,9.9081335E0,1.2768588E1,2.022141E1,1.1614947E1,2.0108612E1,2.4546638E1,3.2338943E1,1.674849E1,3.0308466E1,3.1804224E1,4.051738E1,3.8633175E1,6.0604694E1,4.7178543E1,5.645738E1],"split_indices":[14,14,54,14,14,14,8,16,54,54,54,54,13,7,0,54,54,14,7,7,54,7,7,7,7,54,17,0,7,7,7,54,54,54,54,54,54,54,54,7,7,54,54,54,54,7,54,54,54,7,7,0,28,54,0,0,0,0,0,0,0,0,0,0,0,0,0,0,0,0,0,0,0,0,0,0,0,0,0,0,0,0,0,0,0,0,0,0,0,0,0,0,0,0,0,0,0,0,0,0,0,0,0],"split_type":[0,0,0,0,0,0,0,0,0,0,0,0,0,0,0,0,0,0,0,0,0,0,0,0,0,0,0,0,0,0,0,0,0,0,0,0,0,0,0,0,0,0,0,0,0,0,0,0,0,0,0,0,0,0,0,0,0,0,0,0,0,0,0,0,0,0,0,0,0,0,0,0,0,0,0,0,0,0,0,0,0,0,0,0,0,0,0,0,0,0,0,0,0,0,0,0,0,0,0,0,0,0,0],"sum_hessian":[3.82127E4,3.5842324E4,2.370378E3,2.5699732E4,1.0142591E4,1.731252E3,6.39126E2,1.4062473E4,1.163726E4,6.6367954E3,3.5057954E3,5.0570868E2,1.2255433E3,4.3541733E2,2.0370866E2,8.196551E3,5.8659214E3,8.695882E3,2.941378E3,3.204126E3,3.4326694E3,1.2998347E3,2.2059607E3,1.4E2,3.6570868E2,9.9283466E2,2.3270866E2,1.3E1,4.2241733E2,5.036756E3,3.1597954E3,4.4160864E3,1.4498347E3,3.842252E3,4.85363E3,2.071252E3,8.70126E2,1.8064174E3,1.3977086E3,2.548252E3,8.8441736E2,3.8870868E2,9.11126E2,1.3828347E3,8.23126E2,5.5E1,8.5E1,7.5E1,2.9070868E2,2.9970868E2,6.93126E2,2.0070866E2,3.2E1,4.1241733E2,1E1,2.098252E3,2.938504E3,8.277087E2,2.3320867E3,9.9741736E2,3.4186694E3,1.032126E3,4.1770868E2,1.814126E3,2.028126E3,2.941378E3,1.912252E3,1.4378347E3,6.3341736E2,2.3470866E2,6.3541736E2,5.977087E2,1.2087086E3,8.817087E2,5.16E2,1.3524174E3,1.1958347E3,6.9541736E2,1.89E2,2.4070866E2,1.48E2,5.5441736E2,3.5670868E2,1.3198347E3,6.3E1,7.66126E2,5.7E1,7E0,4.8E1,5E1,3.5E1,3.9E1,3.6E1,2.5170866E2,3.9E1,3.8E1,2.6170868E2,2.7370868E2,4.1941733E2,8E0,2.4E1,3.9E1,3.7341733E2],"tree_param":{"num_deleted":"0","num_feature":"56","num_nodes":"103","size_leaf_vector":"1"}},{"base_weights":[-3.0303779E0,-5.150554E1,7.4960004E2,-1.070278E2,1.2561886E2,5.8003143E2,1.1666263E3,-1.4549734E2,-4.0541073E1,9.21428E1,2.661033E2,4.3915753E2,7.417414E2,1.0537656E3,6.9851585E1,-1.6696207E2,-1.23986275E2,-6.38332E1,2.213236E1,2.4482073E1,1.561887E2,1.7745398E2,3.7599557E2,3.2041568E2,5.210026E2,6.6814905E2,8.977178E2,3.0436232E1,1.0692546E3,-1.6932307E2,-3.300031E0,-1.3090707E2,-6.1072803E1,-8.9561646E1,-4.9820118E1,-1.9666222E1,5.9817825E1,-3.0947685E1,6.837668E1,7.9352005E1,2.3741464E2,1.4154938E2,2.3494704E2,3.4998727E2,5.5336554E2,2.2560187E2,4.5935458E2,3.0682297E2,5.429509E2,4.039125E2,6.8575165E2,2.3729847E1,9.048924E2,1.01326154E3,5.5983387E1,-8.893111E0,-7.739265E0,-7.1369247E0,-5.908588E0,-4.271486E0,-8.9819205E-1,-5.6884165E0,-3.52863E0,-4.341186E0,-1.8621464E0,-1.4950627E0,3.8200276E0,1.6264032E0,4.4296937E0,-3.8291688E0,-5.437897E-1,1.1414257E0,5.746499E0,9.50699E-1,6.3764815E0,1.0177688E1,2.060762E1,3.9131794E0,7.9039774E0,1.0973173E1,2.2358114E1,1.6974552E1,2.5329891E1,2.3707006E1,3.3102467E1,8.051277E0,1.3014203E1,1.7158129E1,2.8296888E1,9.389932E0,1.9121473E1,2.6410578E1,4.3548176E1,1.3593599E1,2.3178614E1,3.1778303E1,3.7253372E1,4.407158E1,5.4262856E1,3.820213E1,5.177537E1],"categories":[],"categories_nodes":[],"categories_segments":[],"categories_sizes":[],"default_left":[0,0,0,0,0,0,0,0,0,0,0,0,0,0,0,0,0,0,0,0,0,0,0,0,0,0,0,0,0,0,0,0,0,0,0,0,0,0,0,0,0,0,0,0,0,0,0,0,0,0,0,0,0,0,0,0,0,0,0,0,0,0,0,0,0,0,0,0,0,0,0,0,0,0,0,0,0,0,0,0,0,0,0,0,0,0,0,0,0,0,0,0,0,0,0,0,0,0,0,0,0],"id":5,"left_children":[1,3,5,7,9,11,13,15,17,19,21,23,25,27,-1,29,31,33,35,37,39,41,43,45,47,49,51,-1,53,55,-1,57,59,61,63,65,67,69,71,73,75,77,79,81,83,85,87,89,91,93,95,-1,97,99,-1,-1,-1,-1,-1,-1,-1,-1,-1,-1,-1,-1,-1,-1,-1,-1,-1,-1,-1,-1,-1,-1,-1,-1,-1,-1,-1,-1,-1,-1,-1,-1,-1,-1,-1,-1,-1,-1,-1,-1,-1,-1,-1,-1,-1,-1,-1],"loss_changes":[1.3455546E9,3.4076448E8,1.5713485E8,6.746774E7,3.886639E7,3.5862304E7,1.5277184E7,7.695168E6,1.4118522E7,2.8942332E7,1.5430944E7,8.10744E6,7.872736E6,2.35728E6,0E0,1.98192E6,3.6278E6,2.53752E6,4.1297155E6,7.9081715E6,2.1396816E7,1.78825E6,3.078848E6,4.506964E6,2.195136E6,2.073712E6,2.79888E5,0E0,5.2E4,9.8664E5,0E0,1.11648E6,8.69344E5,1.134136E6,2.122147E6,1.2248654E6,1.079664E6,1.3151752E6,3.843182E6,5.127835E6,9.78252E6,5.58485E5,1.011458E6,8.49424E5,4.52318E5,4.28372E5,1.55186E6,3.69075E5,1.736784E6,1.4173E5,9.32608E5,0E0,1.0992E4,3.71296E5,0E0,0E0,0E0,0E0,0E0,0E0,0E0,0E0,0E0,0E0,0E0,0E0,0E0,0E0,0E0,0E0,0E0,0E0,0E0,0E0,0E0,0E0,0E0,0E0,0E0,0E0,0E0,0E0,0E0,0E0,0E0,0E0,0E0,0E0,0E0,0E0,0E0,0E0,0E0,0E0,0E0,0E0,0E0,0E0,0E0,0E0,0E0],"parents":[2147483647,0,0,1,1,2,2,3,3,4,4,5,5,6,6,7,7,8,8,9,9,10,10,11,11,12,12,13,13,15,15,16,16,17,17,18,18,19,19,20,20,21,21,22,22,23,23,24,24,25,25,26,26,28,28,29,29,31,31,32,32,33,33,34,34,35,35,36,36,37,37,38,38,39,39,40,40,41,41,42,42,43,43,44,44,45,45,46,46,47,47,48,48,49,49,50,50,52,52,53,53],"right_children":[2,4,6,8,10,12,14,16,18,20,22,24,26,28,-1,30,32,34,36,38,40,42,44,46,48,50,52,-1,54,56,-1,58,60,62,64,66,68,70,72,74,76,78,80,82,84,86,88,90,92,94,96,-1,98,100,-1,-1,-1,-1,-1,-1,-1,-1,-1,-1,-1,-1,-1,-1,-1,-1,-1,-1,-1,-1,-1,-1,-1,-1,-1,-1,-1,-1,-1,-1,-1,-1,-1,-1,-1,-1,-1,-1,-1,-1,-1,-1,-1,-1,-1,-1,-1],"split_conditions":[6.985E2,2.7925E2,4.07E2,1.49375E2,1.45E2,1.001E3,1.557E3,8.025E1,5.6E1,4.29E2,3.71E2,9.86E2,1.512E3,6.55E2,6.9851585E1,7.2E1,5.7E1,1.98E2,1.99E2,-1.5E1,-8.2E1,2.48E2,3.1E2,5.1E1,-4.02E2,8.79E2,4.88E2,3.0436232E1,8.67E2,1.1E1,-3.300031E0,-8E0,1.2E2,5E0,-6.2E1,1.57E2,2.09E2,-1.26E2,3.16E2,5.81E2,6.55E2,2.37E2,4.07E2,5.99E2,5.35E2,-1.64E2,6.55E2,1.181E3,1.307E3,2.2E1,9.9E1,2.3729847E1,1.557E3,8.06E2,5.5983387E1,-8.893111E0,-7.739265E0,-7.1369247E0,-5.908588E0,-4.271486E0,-8.9819205E-1,-5.6884165E0,-3.52863E0,-4.341186E0,-1.8621464E0,-1.4950627E0,3.8200276E0,1.6264032E0,4.4296937E0,-3.8291688E0,-5.437897E-1,1.1414257E0,5.746499E0,9.50699E-1,6.3764815E0,1.0177688E1,2.060762E1,3.9131794E0,7.9039774E0,1.0973173E1,2.2358114E1,1.6974552E1,2.5329891E1,2.3707006E1,3.3102467E1,8.051277E0,1.3014203E1,1.7158129E1,2.8296888E1,9.389932E0,1.9121473E1,2.6410578E1,4.3548176E1,1.3593599E1,2.3178614E1,3.1778303E1,3.7253372E1,4.407158E1,5.4262856E1,3.820213E1,5.177537E1],"split_indices":[16,16,54,16,54,13,8,16,54,7,7,7,13,7,0,54,54,7,7,54,54,54,54,54,54,7,11,0,7,54,0,54,7,54,54,54,13,54,7,7,7,7,54,7,7,54,7,7,7,54,54,0,8,54,0,0,0,0,0,0,0,0,0,0,0,0,0,0,0,0,0,0,0,0,0,0,0,0,0,0,0,0,0,0,0,0,0,0,0,0,0,0,0,0,0,0,0,0,0,0,0],"split_type":[0,0,0,0,0,0,0,0,0,0,0,0,0,0,0,0,0,0,0,0,0,0,0,0,0,0,0,0,0,0,0,0,0,0,0,0,0,0,0,0,0,0,0,0,0,0,0,0,0,0,0,0,0,0,0,0,0,0,0,0,0,0,0,0,0,0,0,0,0,0,0,0,0,0,0,0,0,0,0,0,0,0,0,0,0,0,0,0,0,0,0,0,0,0,0,0,0,0,0,0,0],"sum_hessian":[3.6878742E4,3.464807E4,2.2306694E3,2.6379441E4,8.26863E3,1.5875433E3,6.43126E2,1.670985E4,9.669591E3,6.6787954E3,1.5898347E3,8.5041736E2,7.37126E2,4.3541733E2,2.0770866E2,8.360551E3,8.349299E3,7.04963E3,2.6199607E3,3.2484172E3,3.430378E3,8.8141736E2,7.0841736E2,3.49E2,5.0141733E2,5.0441733E2,2.3270866E2,1.6E1,4.1941733E2,8.168843E3,1.9170866E2,7.520882E3,8.2841736E2,2.4838347E3,4.5657954E3,1.2424174E3,1.3775433E3,1.4357086E3,1.8127086E3,1.7638347E3,1.6665433E3,5.447087E2,3.3670868E2,6.2041736E2,8.8E1,2.09E2,1.4E2,4.8E1,4.5341733E2,3.3E1,4.7141733E2,5E0,2.2770866E2,2.0870866E2,2.1070866E2,5.1390474E3,3.0297954E3,3.893504E3,3.627378E3,5.287087E2,2.9970868E2,1.0897086E3,1.394126E3,1.1567086E3,3.4090867E3,1.1234174E3,1.19E2,7.08126E2,6.6941736E2,4.3770868E2,9.98E2,9.17E2,8.957087E2,7.837087E2,9.80126E2,1.3978347E3,2.6870868E2,1.14E2,4.3070868E2,3.1570868E2,2.1E1,5.8441736E2,3.6E1,5.4E1,3.4E1,7.5E1,1.34E2,6.9E1,7.1E1,2E1,2.8E1,4.3641733E2,1.7E1,1.2E1,2.1E1,2.6170868E2,2.0970866E2,2.0670866E2,2.1E1,2E1,1.8870866E2],"tree_param":{"num_deleted":"0","num_feature":"56","num_nodes":"101","size_leaf_vector":"1"}},{"base_weights":[-4.142372E0,-4.6556156E1,7.170763E2,-1.0320618E2,1.3037715E2,5.342722E2,1.1050833E3,-1.3692204E2,-3.2540527E1,8.506672E1,2.3258582E2,3.1065527E2,6.125967E2,9.990622E2,6.6544464E1,-1.5766064E2,-1.1493775E2,-5.499205E1,2.220657E1,4.5666656E1,1.8680002E2,1.3780002E2,2.7305798E2,1.895389E2,4.1987418E2,5.60127E2,7.417412E2,3.0115408E1,1.01723126E3,-1.5977614E2,-6.6126495E1,-1.2896678E2,-8.4037346E1,-7.660533E1,-3.4259594E1,-2.7213482E1,5.139376E1,5.945611E0,8.4009155E1,1.4525223E2,2.974754E2,9.988049E1,1.9175621E2,2.1451813E2,3.5292816E2,1.13031105E2,2.2916135E2,3.1532227E2,5.0977115E2,3.258995E2,5.887642E2,6.864129E2,9.21391E2,3.704156E1,5.13461E1,-8.42524E0,-7.339147E0,-5.272483E0,-3.1033864E0,-6.73631E0,-5.4112396E0,-4.7519794E0,-1.2552623E0,-5.415298E0,-3.2454076E0,-2.45997E0,7.972763E-1,-1.7086378E0,3.2896087E0,1.8205729E0,5.2786927E0,-1.6059233E0,1.6233252E0,1.7952108E0,7.7594714E0,6.0633354E0,1.0632133E1,1.1854347E1,1.6324444E1,7.7352875E-1,5.595441E0,4.389451E0,1.0588607E1,9.916739E0,2.0749752E1,1.681773E1,3.0163519E1,-5.776115E-1,6.6028E0,4.766327E0,1.2933669E1,1.3711962E1,2.0843493E1,2.1675903E1,2.9666672E1,1.108212E1,2.0133577E1,2.8982834E1,3.9683674E1,3.4630795E1,1.959379E1,3.539367E1,5.095668E1],"categories":[],"categories_nodes":[],"categories_segments":[],"categories_sizes":[],"default_left":[0,0,0,0,0,0,0,0,0,0,0,0,0,0,0,0,0,0,0,0,0,0,0,0,0,0,0,0,0,0,0,0,0,0,0,0,0,0,0,0,0,0,0,0,0,0,0,0,0,0,0,0,0,0,0,0,0,0,0,0,0,0,0,0,0,0,0,0,0,0,0,0,0,0,0,0,0,0,0,0,0,0,0,0,0,0,0,0,0,0,0,0,0,0,0,0,0,0,0,0,0,0,0],"id":6,"left_children":[1,3,5,7,9,11,13,15,17,19,21,23,25,27,-1,29,31,33,35,37,39,41,43,45,47,49,51,-1,53,55,57,59,61,63,65,67,69,71,73,75,77,79,81,83,85,87,89,91,93,95,97,99,101,-1,-1,-1,-1,-1,-1,-1,-1,-1,-1,-1,-1,-1,-1,-1,-1,-1,-1,-1,-1,-1,-1,-1,-1,-1,-1,-1,-1,-1,-1,-1,-1,-1,-1,-1,-1,-1,-1,-1,-1,-1,-1,-1,-1,-1,-1,-1,-1,-1,-1],"loss_changes":[1.1196445E9,3.465088E8,1.436057E8,6.238445E7,3.880904E7,2.404704E7,1.4234304E7,8.064128E6,1.0399225E7,2.3282344E7,9.839264E6,4.69574E6,6.522048E6,2.605216E6,0E0,1.755264E6,3.721112E6,2.685722E6,3.5511708E6,6.380625E6,7.41446E6,1.561178E6,8.355488E6,4.985E5,1.615564E6,4.71888E6,2.276832E6,0E0,3.78528E5,9.86064E5,2.6589375E4,6.9248E5,1.74238E6,1.081844E6,2.2989255E6,5.941037E5,1.2523488E6,2.0795895E6,7.29407E6,1.883346E6,6.9644E5,4.60941E5,6.4253E5,3.301936E6,2.95496E6,1.4611881E5,4.21626E5,2.61078E5,3.79864E5,5.6702E5,7.54928E5,1.44496E5,6.55816E5,0E0,0E0,0E0,0E0,0E0,0E0,0E0,0E0,0E0,0E0,0E0,0E0,0E0,0E0,0E0,0E0,0E0,0E0,0E0,0E0,0E0,0E0,0E0,0E0,0E0,0E0,0E0,0E0,0E0,0E0,0E0,0E0,0E0,0E0,0E0,0E0,0E0,0E0,0E0,0E0,0E0,0E0,0E0,0E0,0E0,0E0,0E0,0E0,0E0,0E0],"parents":[2147483647,0,0,1,1,2,2,3,3,4,4,5,5,6,6,7,7,8,8,9,9,10,10,11,11,12,12,13,13,15,15,16,16,17,17,18,18,19,19,20,20,21,21,22,22,23,23,24,24,25,25,26,26,28,28,29,29,30,30,31,31,32,32,33,33,34,34,35,35,36,36,37,37,38,38,39,39,40,40,41,41,42,42,43,43,44,44,45,45,46,46,47,47,48,48,49,49,50,50,51,51,52,52],"right_children":[2,4,6,8,10,12,14,16,18,20,22,24,26,28,-1,30,32,34,36,38,40,42,44,46,48,50,52,-1,54,56,58,60,62,64,66,68,70,72,74,76,78,80,82,84,86,88,90,92,94,96,98,100,102,-1,-1,-1,-1,-1,-1,-1,-1,-1,-1,-1,-1,-1,-1,-1,-1,-1,-1,-1,-1,-1,-1,-1,-1,-1,-1,-1,-1,-1,-1,-1,-1,-1,-1,-1,-1,-1,-1,-1,-1,-1,-1,-1,-1,-1,-1,-1,-1,-1,-1],"split_conditions":[6.985E2,2.7925E2,4.07E2,1.6175E2,4.91625E2,9.43E2,1.3126223E0,8.025E1,5.9E1,1.05E2,-8.2E1,-1.1E1,1.145E3,6.42E2,6.6544464E1,6.7E1,2.4E1,2.26E2,1.76E2,3.94E2,3.53E2,6.00375E2,5.81E2,6.81E2,6.81E2,-2.99E2,1.244375E3,3.0115408E1,9.37E2,7E0,8.2E1,1.38125E2,1.38E2,-1.5E1,1E0,1.66E2,1.38E2,-2.3E1,-6.2E1,2.48E2,4.27E2,5.1E2,6.81E2,2.48E2,1.69E2,-2.19E2,-3.22E2,2.48E2,1.69E2,1.181E3,1.262E3,2.95E-1,-4.02E2,3.704156E1,5.13461E1,-8.42524E0,-7.339147E0,-5.272483E0,-3.1033864E0,-6.73631E0,-5.4112396E0,-4.7519794E0,-1.2552623E0,-5.415298E0,-3.2454076E0,-2.45997E0,7.972763E-1,-1.7086378E0,3.2896087E0,1.8205729E0,5.2786927E0,-1.6059233E0,1.6233252E0,1.7952108E0,7.7594714E0,6.0633354E0,1.0632133E1,1.1854347E1,1.6324444E1,7.7352875E-1,5.595441E0,4.389451E0,1.0588607E1,9.916739E0,2.0749752E1,1.681773E1,3.0163519E1,-5.776115E-1,6.6028E0,4.766327E0,1.2933669E1,1.3711962E1,2.0843493E1,2.1675903E1,2.9666672E1,1.108212E1,2.0133577E1,2.8982834E1,3.9683674E1,3.4630795E1,1.959379E1,3.539367E1,5.095668E1],"split_indices":[16,16,54,16,16,7,55,16,54,54,54,54,13,7,0,54,54,7,7,7,7,16,7,7,7,54,16,0,13,54,7,16,7,54,54,54,54,54,54,54,7,7,7,54,54,54,54,54,54,7,7,43,54,0,0,0,0,0,0,0,0,0,0,0,0,0,0,0,0,0,0,0,0,0,0,0,0,0,0,0,0,0,0,0,0,0,0,0,0,0,0,0,0,0,0,0,0,0,0,0,0,0,0],"split_type":[0,0,0,0,0,0,0,0,0,0,0,0,0,0,0,0,0,0,0,0,0,0,0,0,0,0,0,0,0,0,0,0,0,0,0,0,0,0,0,0,0,0,0,0,0,0,0,0,0,0,0,0,0,0,0,0,0,0,0,0,0,0,0,0,0,0,0,0,0,0,0,0,0,0,0,0,0,0,0,0,0,0,0,0,0,0,0,0,0,0,0,0,0,0,0,0,0,0,0,0,0,0,0],"sum_hessian":[3.660003E4,3.456807E4,2.0319607E3,2.6184732E4,8.383339E3,1.3828347E3,6.49126E2,1.7726268E4,8.458465E3,5.8096694E3,2.5736694E3,3.6E2,1.02283466E3,4.4541733E2,2.0370866E2,9.118386E3,8.607882E3,5.998504E3,2.4599607E3,4.1888345E3,1.6208347E3,7.7141736E2,1.802252E3,1.72E2,1.88E2,7.31126E2,2.9170868E2,2.1E1,4.2441733E2,8.911678E3,2.0670866E2,5.9179214E3,2.6899607E3,2.9355432E3,3.0629607E3,9.1341736E2,1.5465433E3,2.058E3,2.1308347E3,1.180126E3,4.4070868E2,4.5470868E2,3.1670868E2,1.042126E3,7.60126E2,6E1,1.12E2,8.9E1,9.9E1,8.1E1,6.50126E2,2.2670866E2,6.5E1,1.7E1,4.0741733E2,5.323465E3,3.5882126E3,1.7E1,1.8970866E2,4.627504E3,1.2904174E3,2.266252E3,4.2370868E2,7.89E2,2.1465432E3,2.3605432E3,7.0241736E2,8.5041736E2,6.3E1,1.2128347E3,3.3370868E2,8.45E2,1.213E3,1.2724174E3,8.5841736E2,8.7241736E2,3.0770868E2,1.46E2,2.9470868E2,5.7E1,3.9770868E2,5.2E1,2.6470868E2,9.66126E2,7.6E1,7.15126E2,4.5E1,8E0,5.2E1,2.1E1,9.1E1,6.6E1,2.3E1,5.5E1,4.4E1,3.6E1,4.5E1,6.26126E2,2.4E1,2.2070866E2,6E0,2.3E1,4.2E1],"tree_param":{"num_deleted":"0","num_feature":"56","num_nodes":"103","size_leaf_vector":"1"}},{"base_weights":[4.4802413E0,-4.205032E1,6.3678735E2,-9.537472E1,1.020719E2,4.948487E2,8.2226746E2,-1.3152412E2,-3.7619682E1,6.008408E1,1.9557388E2,3.3401746E2,5.6934106E2,7.1891205E2,9.7183966E2,-1.4927563E2,-1.0597299E2,-6.2862076E1,1.3994819E1,2.7097332E1,1.7344376E2,1.4322354E2,3.1771295E2,2.4778807E2,4.0145984E2,5.245002E2,6.655993E2,6.083462E2,7.902095E2,9.444185E2,6.8496254E1,-1.536579E2,-1.02134674E2,-1.1828223E2,-7.561464E1,-7.996988E1,-2.2983223E1,-1.970622E0,7.3326E1,-7.0563045E0,7.343314E1,1.2166913E2,3.2755725E2,1.2042015E2,2.3339017E2,3.0287982E2,5.2633966E2,1.959607E2,3.3274258E2,2.0725584E2,4.2592023E2,2.8425226E2,5.425309E2,6.2302295E2,8.38844E2,3.9137753E2,3.231805E1,7.7403986E2,6.4613205E1,7.3178265E2,4.8438274E1,-8.160045E0,-7.10775E0,-5.732732E0,-3.8927116E0,-6.118271E0,-2.9816813E0,-4.092487E0,-1.3442321E0,-5.2864556E0,-3.2480798E0,-2.0684218E0,1.2724769E0,-1.3148421E0,9.02822E-1,1.6087722E0,4.5873485E0,-2.1933372E0,9.338402E-1,1.2497607E0,7.252969E0,4.6751075E0,9.553491E0,1.1511377E1,1.9259962E1,2.929482E0,7.463145E0,1.060126E1,2.1384693E1,1.277666E1,1.643319E1,2.2194317E1,3.037865E1,7.0572367E0,1.1688582E1,1.1949781E1,2.0461271E1,7.41056E0,1.2667039E1,2.0814444E1,2.7228796E1,9.617984E0,1.5732108E1,1.7908152E1,2.7796864E1,2.247032E1,3.2800354E1,2.7845098E1,4.4592575E1,1.0374065E1,2.081304E1,3.6491863E1,4.058874E1,2.2401115E1,3.8866585E1],"categories":[],"categories_nodes":[],"categories_segments":[],"categories_sizes":[],"default_left":[0,0,0,0,0,0,0,0,0,0,0,0,0,0,0,0,0,0,0,0,0,0,0,0,0,0,0,0,0,0,0,0,0,0,0,0,0,0,0,0,0,0,0,0,0,0,0,0,0,0,0,0,0,0,0,0,0,0,0,0,0,0,0,0,0,0,0,0,0,0,0,0,0,0,0,0,0,0,0,0,0,0,0,0,0,0,0,0,0,0,0,0,0,0,0,0,0,0,0,0,0,0,0,0,0,0,0,0,0,0,0,0,0,0,0],"id":7,"left_children":[1,3,5,7,9,11,13,15,17,19,21,23,25,27,29,31,33,35,37,39,41,43,45,47,49,51,53,55,57,59,-1,61,63,65,67,69,71,73,75,77,79,81,83,85,87,89,91,93,95,97,99,101,103,105,107,109,-1,111,-1,113,-1,-1,-1,-1,-1,-1,-1,-1,-1,-1,-1,-1,-1,-1,-1,-1,-1,-1,-1,-1,-1,-1,-1,-1,-1,-1,-1,-1,-1,-1,-1,-1,-1,-1,-1,-1,-1,-1,-1,-1,-1,-1,-1,-1,-1,-1,-1,-1,-1,-1,-1,-1,-1,-1,-1],"loss_changes":[1.1070317E9,2.6935776E8,6.749197E7,5.340691E7,3.7150264E7,1.7344032E7,1.6561984E7,7.12064E6,1.283382E7,2.442754E7,1.8707864E7,2.608788E6,3.962048E6,4.754464E6,3.655456E6,1.901696E6,2.402624E6,4.511114E6,3.065254E6,8.0117215E6,1.1709772E7,4.196816E6,2.561032E6,8.46158E5,1.14536E6,2.817888E6,1.791184E6,1.930256E6,2.250144E6,1.503648E6,0E0,9.08736E5,2.319415E5,1.091856E6,5.64304E5,1.782566E6,1.770596E6,1.2431176E6,5.1714175E5,2.7621662E6,7.449122E6,2.139892E6,1.985424E6,2.919738E6,1.626678E6,9.20808E5,1.11985E5,2.384835E5,4.54224E5,4.6765125E4,3.572E4,7.9055E4,1.375584E6,1.169416E6,3.84936E5,1.057605E5,0E0,5.8592E4,0E0,2.72016E5,0E0,0E0,0E0,0E0,0E0,0E0,0E0,0E0,0E0,0E0,0E0,0E0,0E0,0E0,0E0,0E0,0E0,0E0,0E0,0E0,0E0,0E0,0E0,0E0,0E0,0E0,0E0,0E0,0E0,0E0,0E0,0E0,0E0,0E0,0E0,0E0,0E0,0E0,0E0,0E0,0E0,0E0,0E0,0E0,0E0,0E0,0E0,0E0,0E0,0E0,0E0,0E0,0E0,0E0,0E0],"parents":[2147483647,0,0,1,1,2,2,3,3,4,4,5,5,6,6,7,7,8,8,9,9,10,10,11,11,12,12,13,13,14,14,15,15,16,16,17,17,18,18,19,19,20,20,21,21,22,22,23,23,24,24,25,25,26,26,27,27,28,28,29,29,31,31,32,32,33,33,34,34,35,35,36,36,37,37,38,38,39,39,40,40,41,41,42,42,43,43,44,44,45,45,46,46,47,47,48,48,49,49,50,50,51,51,52,52,53,53,54,54,55,55,57,57,59,59],"right_children":[2,4,6,8,10,12,14,16,18,20,22,24,26,28,30,32,34,36,38,40,42,44,46,48,50,52,54,56,58,60,-1,62,64,66,68,70,72,74,76,78,80,82,84,86,88,90,92,94,96,98,100,102,104,106,108,110,-1,112,-1,114,-1,-1,-1,-1,-1,-1,-1,-1,-1,-1,-1,-1,-1,-1,-1,-1,-1,-1,-1,-1,-1,-1,-1,-1,-1,-1,-1,-1,-1,-1,-1,-1,-1,-1,-1,-1,-1,-1,-1,-1,-1,-1,-1,-1,-1,-1,-1,-1,-1,-1,-1,-1,-1,-1,-1],"split_conditions":[7.115E2,2.6275E2,1.84E2,1.33E2,7.8E1,9.2775E2,4.07E2,9.4E1,5.5E1,5.81E2,4.37E2,9.43E2,1.262E3,9.77E2,1.307E3,4.2E1,9E0,2.53E2,2.36E2,-1.7E1,-1.07E2,2.48E2,3.1E2,-9E0,-4.02E2,-1.92E2,3.4987213E2,7.3E2,1.262E3,8.06E2,6.8496254E1,4E0,7.7E1,2.3E2,1.51E2,-1.6E1,-1.1E1,1.63E2,7E1,3.75E2,3.71E2,-1.96E2,7.3E2,2.79E2,4.07E2,1.39E2,4.07E2,-1.92E2,6.81E2,1.113E3,-7.3E1,-4.02E2,9.43E2,-2.79E2,9.95E2,5.02E2,3.231805E1,2.25E2,6.4613205E1,6.55E2,4.8438274E1,-8.160045E0,-7.10775E0,-5.732732E0,-3.8927116E0,-6.118271E0,-2.9816813E0,-4.092487E0,-1.3442321E0,-5.2864556E0,-3.2480798E0,-2.0684218E0,1.2724769E0,-1.3148421E0,9.02822E-1,1.6087722E0,4.5873485E0,-2.1933372E0,9.338402E-1,1.2497607E0,7.252969E0,4.6751075E0,9.553491E0,1.1511377E1,1.9259962E1,2.929482E0,7.463145E0,1.060126E1,2.1384693E1,1.277666E1,1.643319E1,2.2194317E1,3.037865E1,7.0572367E0,1.1688582E1,1.1949781E1,2.0461271E1,7.41056E0,1.2667039E1,2.0814444E1,2.7228796E1,9.617984E0,1.5732108E1,1.7908152E1,2.7796864E1,2.247032E1,3.2800354E1,2.7845098E1,4.4592575E1,1.0374065E1,2.081304E1,3.6491863E1,4.058874E1,2.2401115E1,3.8866585E1],"split_indices":[14,16,54,13,54,14,54,7,54,7,7,7,7,7,7,54,54,7,7,54,54,54,54,54,54,54,17,7,7,54,0,54,54,7,7,54,54,7,54,7,7,54,7,7,54,54,54,54,7,7,54,54,7,54,13,7,0,54,0,7,0,0,0,0,0,0,0,0,0,0,0,0,0,0,0,0,0,0,0,0,0,0,0,0,0,0,0,0,0,0,0,0,0,0,0,0,0,0,0,0,0,0,0,0,0,0,0,0,0,0,0,0,0,0,0],"split_type":[0,0,0,0,0,0,0,0,0,0,0,0,0,0,0,0,0,0,0,0,0,0,0,0,0,0,0,0,0,0,0,0,0,0,0,0,0,0,0,0,0,0,0,0,0,0,0,0,0,0,0,0,0,0,0,0,0,0,0,0,0,0,0,0,0,0,0,0,0,0,0,0,0,0,0,0,0,0,0,0,0,0,0,0,0,0,0,0,0,0,0,0,0,0,0,0,0,0,0,0,0,0,0,0,0,0,0,0,0,0,0,0,0,0,0],"sum_hessian":[3.7624574E4,3.504649E4,2.5780867E3,2.5581732E4,9.464756E3,1.4625433E3,1.1155433E3,1.5733016E4,9.848717E3,6.5327954E3,2.9319607E3,4.6470868E2,9.9783466E2,6.63126E2,4.5241733E2,9.280551E3,6.452465E3,6.6139214E3,3.2347954E3,5.061252E3,1.4715433E3,2.0538347E3,8.78126E2,2.06E2,2.5870868E2,6.85126E2,3.1270868E2,2.6370868E2,3.9941733E2,4.2641733E2,2.6E1,8.489134E3,7.9141736E2,4.5889214E3,1.8635433E3,4.6276694E3,1.986252E3,2.5496694E3,6.85126E2,2.914126E3,2.147126E3,1.1028347E3,3.6870868E2,1.641126E3,4.1270868E2,8.22126E2,5.6E1,1.3E2,7.6E1,3E1,2.2870866E2,4.9E1,6.36126E2,2.5470866E2,5.8E1,4.1E1,2.2270866E2,3.8941733E2,1E1,4.7E1,3.7941733E2,4.63263E3,3.856504E3,5.197087E2,2.7170868E2,4.2892124E3,2.9970868E2,1.6515433E3,2.12E2,1.7014174E3,2.926252E3,1.4398347E3,5.4641736E2,1.151126E3,1.3985433E3,2.1270866E2,4.7241733E2,1.1987086E3,1.7154174E3,1.2817086E3,8.6541736E2,7.86126E2,3.1670868E2,1.39E2,2.2970866E2,5.23E2,1.118126E3,3.7370868E2,3.9E1,2.9370868E2,5.2841736E2,3.1E1,2.5E1,5.5E1,7.5E1,3.6E1,4E1,1.5E1,1.5E1,2.1570866E2,1.3E1,1.4E1,3.5E1,4.5E1,5.91126E2,4.3E1,2.1170866E2,1.1E1,4.7E1,6E0,3.5E1,1.8870866E2,2.0070866E2,8E0,3.9E1],"tree_param":{"num_deleted":"0","num_feature":"56","num_nodes":"115","size_leaf_vector":"1"}},{"base_weights":[-3.0877228E0,-4.350476E1,6.2960986E2,-9.377911E1,9.910431E1,5.2532404E2,1.0272275E3,-1.293153E2,-4.1173424E1,7.295289E1,2.4227052E2,3.4674667E2,6.112756E2,8.6285065E2,1.208256E3,-1.439251E2,-1.05856384E2,-6.441521E1,6.9544916E0,3.751626E1,1.8567401E2,1.5654E2,3.1586337E2,2.7525323E2,4.0258713E2,5.680508E2,7.8340826E2,2.0755579E1,8.763427E2,3.7131657E1,6.1018612E1,-1.5449757E2,-1.3392078E2,-1.1585626E2,-7.694331E1,-9.093042E1,-4.886144E1,-2.5296E1,3.3471436E1,4.1239276E0,8.46379E1,1.8394842E1,1.6420392E2,1.1821143E2,1.9840474E2,3.0100842E2,5.7030945E2,1.9557655E2,3.7223602E2,2.3418848E2,4.3023456E2,3.7029477E2,5.819989E2,7.946897E2,2.5437206E1,3.2375446E1,4.450612E1,-8.0869E0,-7.0726495E0,-7.1812997E0,-6.2805495E0,-6.2229667E0,-5.2779E0,-4.157503E0,-1.3038131E0,-5.425974E0,-3.9316728E0,-4.149765E0,-1.8982977E0,-1.8672287E0,1.1758349E0,1.0990485E0,4.689137E0,-1.4452552E0,1.8643715E0,1.8707825E0,7.3527536E0,4.6540627E0,9.780759E0,3.726605E0,7.240716E0,8.710262E0,1.4353769E1,1.4586924E1,2.3787815E1,2.3167593E1,3.3206676E1,6.8491364E0,1.186435E1,1.4174545E1,2.243269E1,7.7865405E0,1.5464104E1,2.0288517E1,3.1049341E1,1.2599302E1,2.2135176E1,2.8479101E1,3.790409E1,5.383238E1,3.8676094E1],"categories":[],"categories_nodes":[],"categories_segments":[],"categories_sizes":[],"default_left":[0,0,0,0,0,0,0,0,0,0,0,0,0,0,0,0,0,0,0,0,0,0,0,0,0,0,0,0,0,0,0,0,0,0,0,0,0,0,0,0,0,0,0,0,0,0,0,0,0,0,0,0,0,0,0,0,0,0,0,0,0,0,0,0,0,0,0,0,0,0,0,0,0,0,0,0,0,0,0,0,0,0,0,0,0,0,0,0,0,0,0,0,0,0,0,0,0,0,0,0,0],"id":8,"left_children":[1,3,5,7,9,11,13,15,17,19,21,23,25,27,29,31,33,35,37,39,41,43,45,47,49,51,53,-1,55,-1,-1,57,59,61,63,65,67,69,71,73,75,-1,77,79,81,83,85,87,89,91,93,95,97,99,-1,-1,-1,-1,-1,-1,-1,-1,-1,-1,-1,-1,-1,-1,-1,-1,-1,-1,-1,-1,-1,-1,-1,-1,-1,-1,-1,-1,-1,-1,-1,-1,-1,-1,-1,-1,-1,-1,-1,-1,-1,-1,-1,-1,-1,-1,-1],"loss_changes":[9.376423E8,2.4711142E8,9.07545E7,4.7632016E7,3.3617464E7,2.6591136E7,1.2538816E7,5.197072E6,1.1494184E7,3.0341416E7,8.702104E6,2.163528E6,8.316256E6,1.102288E6,3.048E5,9.70256E5,1.679676E6,2.853226E6,2.8632238E6,9.097106E6,7.0481E6,1.007814E6,2.645768E6,1.88214E6,1.378364E6,2.39056E6,3.19744E5,0E0,1.63584E5,0E0,0E0,4.06696E5,3.7076E5,3.7112E5,4.7261E5,5.4531E5,1.621876E6,8.8943694E5,1.2711515E6,3.7086852E6,7.062048E6,0E0,3.617128E6,3.819395E5,6.05929E5,1.005448E6,9.3568E4,3.120585E5,6.3907E5,2.286975E5,1.01588E6,4.45204E5,1.49392E6,4.96224E5,0E0,0E0,0E0,0E0,0E0,0E0,0E0,0E0,0E0,0E0,0E0,0E0,0E0,0E0,0E0,0E0,0E0,0E0,0E0,0E0,0E0,0E0,0E0,0E0,0E0,0E0,0E0,0E0,0E0,0E0,0E0,0E0,0E0,0E0,0E0,0E0,0E0,0E0,0E0,0E0,0E0,0E0,0E0,0E0,0E0,0E0,0E0],"parents":[2147483647,0,0,1,1,2,2,3,3,4,4,5,5,6,6,7,7,8,8,9,9,10,10,11,11,12,12,13,13,14,14,15,15,16,16,17,17,18,18,19,19,20,20,21,21,22,22,23,23,24,24,25,25,26,26,28,28,31,31,32,32,33,33,34,34,35,35,36,36,37,37,38,38,39,39,40,40,42,42,43,43,44,44,45,45,46,46,47,47,48,48,49,49,50,50,51,51,52,52,53,53],"right_children":[2,4,6,8,10,12,14,16,18,20,22,24,26,28,30,32,34,36,38,40,42,44,46,48,50,52,54,-1,56,-1,-1,58,60,62,64,66,68,70,72,74,76,-1,78,80,82,84,86,88,90,92,94,96,98,100,-1,-1,-1,-1,-1,-1,-1,-1,-1,-1,-1,-1,-1,-1,-1,-1,-1,-1,-1,-1,-1,-1,-1,-1,-1,-1,-1,-1,-1,-1,-1,-1,-1,-1,-1,-1,-1,-1,-1,-1,-1,-1,-1,-1,-1,-1,-1],"split_conditions":[7.115E2,2.74E2,4.07E2,1.25E2,1.45E2,9.09E2,1.314E3,9.225E1,5.4E1,5.49E2,3.53E2,9.43E2,1.512E3,5.8E2,3.2E2,5.95E1,2.6E1,1.9525E2,1.69E2,2E0,3.15E2,2.57E2,4.07E2,7E0,-4E2,9.43E2,2.36E-1,2.0755579E1,8E-3,3.7131657E1,6.1018612E1,7E0,0E0,1.15E2,1.38E2,1.48E2,-5.8E1,1.39E2,2.57E2,4.01E2,3.43E2,1.8394842E1,-1.92E2,2.45E2,2.59E2,6.09E2,5.9E2,7.38E2,6.55E2,1.181E3,-8.5E1,2.6E1,1.24275E3,3E-3,2.5437206E1,3.2375446E1,4.450612E1,-8.0869E0,-7.0726495E0,-7.1812997E0,-6.2805495E0,-6.2229667E0,-5.2779E0,-4.157503E0,-1.3038131E0,-5.425974E0,-3.9316728E0,-4.149765E0,-1.8982977E0,-1.8672287E0,1.1758349E0,1.0990485E0,4.689137E0,-1.4452552E0,1.8643715E0,1.8707825E0,7.3527536E0,4.6540627E0,9.780759E0,3.726605E0,7.240716E0,8.710262E0,1.4353769E1,1.4586924E1,2.3787815E1,2.3167593E1,3.3206676E1,6.8491364E0,1.186435E1,1.4174545E1,2.243269E1,7.7865405E0,1.5464104E1,2.0288517E1,3.1049341E1,1.2599302E1,2.2135176E1,2.8479101E1,3.790409E1,5.383238E1,3.8676094E1],"split_indices":[14,14,54,13,54,13,8,14,54,14,7,7,13,7,2,14,54,14,7,54,9,54,54,54,54,7,30,0,40,0,0,54,54,9,7,7,54,54,7,7,7,0,54,7,7,7,18,7,7,7,54,54,14,34,0,0,0,0,0,0,0,0,0,0,0,0,0,0,0,0,0,0,0,0,0,0,0,0,0,0,0,0,0,0,0,0,0,0,0,0,0,0,0,0,0,0,0,0,0,0,0],"split_type":[0,0,0,0,0,0,0,0,0,0,0,0,0,0,0,0,0,0,0,0,0,0,0,0,0,0,0,0,0,0,0,0,0,0,0,0,0,0,0,0,0,0,0,0,0,0,0,0,0,0,0,0,0,0,0,0,0,0,0,0,0,0,0,0,0,0,0,0,0,0,0,0,0,0,0,0,0,0,0,0,0,0,0,0,0,0,0,0,0,0,0,0,0,0,0,0,0,0,0,0,0],"sum_hessian":[3.666503E4,3.4464363E4,2.2006694E3,2.5481607E4,8.982756E3,1.745252E3,4.5541733E2,1.5207308E4,1.0274299E4,7.59663E3,1.386126E3,5.687087E2,1.1765433E3,2.4170866E2,2.1370866E2,9.367969E3,5.839339E3,6.9282124E3,3.3460867E3,5.7806694E3,1.8159607E3,6.417087E2,7.4441736E2,2.52E2,3.1670868E2,9.4383466E2,2.3270866E2,8E0,2.3370866E2,7E0,2.0670866E2,4.54763E3,4.820339E3,4.336504E3,1.5028347E3,2.5597087E3,4.368504E3,1.5098347E3,1.836252E3,3.3838347E3,2.3968347E3,1.8970866E2,1.626252E3,3.37E2,3.0470868E2,7.0541736E2,3.9E1,1.4E2,1.12E2,4.6E1,2.7070868E2,6.4E1,8.7983466E2,2.2170866E2,1.1E1,1.6E1,2.1770866E2,2.9170867E3,1.6305433E3,2.2159607E3,2.604378E3,2.3566694E3,1.9798347E3,1.3388347E3,1.64E2,1.05E3,1.5097086E3,1.0554174E3,3.3130867E3,1.211126E3,2.9870868E2,1.5435433E3,2.9270868E2,1.6954174E3,1.6884174E3,1.3654174E3,1.0314174E3,4.9941733E2,1.1268347E3,1.29E2,2.08E2,2.4170866E2,6.3E1,6.7241736E2,3.3E1,2.1E1,1.8E1,6E1,8E1,5.4E1,5.8E1,2.4E1,2.2E1,2.4270866E2,2.8E1,2.6E1,3.8E1,8.2583466E2,5.4E1,1.2E1,2.0970866E2],"tree_param":{"num_deleted":"0","num_feature":"56","num_nodes":"101","size_leaf_vector":"1"}},{"base_weights":[5.011579E0,-3.90285E1,6.399831E2,-8.7744064E1,9.07843E1,5.173472E2,9.498918E2,-1.2324881E2,-4.4654552E1,6.703013E1,2.2295921E2,3.2189725E2,5.742467E2,8.560689E2,5.8323067E1,-1.4323018E2,-1.1077299E2,-6.5497894E1,1.3683941E1,3.397762E1,1.3623828E2,1.26721634E2,2.7673395E2,2.6543988E2,4.5644394E2,5.0995276E2,6.859459E2,3.0871845E1,8.8030646E2,-1.581636E2,-1.3618787E2,-1.18701935E2,-8.311299E1,-9.4600044E1,-5.4143417E1,-6.7765007E0,4.9946053E1,-4.0979257E0,7.795451E1,1.0536095E2,1.9664421E2,1.1939407E2,1.2964722E1,2.6465405E2,4.8003885E2,2.1660071E2,3.5143817E2,5.0852103E2,3.525861E2,2.686483E2,5.210257E2,4.6088397E2,7.070649E2,8.633801E2,1.0993474E3,-8.153209E0,-7.61499E0,-7.277931E0,-6.4395776E0,-6.2765517E0,-5.335361E0,-4.7279344E0,-2.9840367E0,-5.196166E0,-3.4967217E0,-4.012258E0,-1.8876609E0,-1.0033396E0,1.2683754E0,4.344183E0,1.4970951E0,-1.3886195E0,1.0544525E0,3.4498806E0,8.966191E0,4.4940476E0,7.8055725E0,7.7756915E0,1.1444208E1,5.6020055E0,7.6950493E0,1.16442375E1,1.5297084E1,1.845744E1,2.8041245E1,8.912484E0,1.27776785E1,1.8459938E1,1.2599277E1,1.261097E1,2.703105E1,1.8880642E1,8.853439E0,3.35338E0,1.5163196E1,2.4820974E1,2.9673014E1,1.6120827E1,2.7217077E1,3.4387436E1,4.4849678E1,3.1274704E1,4.384249E1,3.2439735E1,5.861253E1],"categories":[],"categories_nodes":[],"categories_segments":[],"categories_sizes":[],"default_left":[0,0,0,0,0,0,0,0,0,0,0,0,0,0,0,0,0,0,0,0,0,0,0,0,0,0,0,0,0,0,0,0,0,0,0,0,0,0,0,0,0,0,0,0,0,0,0,0,0,0,0,0,0,0,0,0,0,0,0,0,0,0,0,0,0,0,0,0,0,0,0,0,0,0,0,0,0,0,0,0,0,0,0,0,0,0,0,0,0,0,0,0,0,0,0,0,0,0,0,0,0,0,0,0,0],"id":9,"left_children":[1,3,5,7,9,11,13,15,17,19,21,23,25,27,-1,29,31,33,35,37,39,41,43,45,47,49,51,-1,53,55,57,59,61,63,65,67,69,71,73,75,77,79,-1,81,83,85,87,89,91,93,95,97,99,101,103,-1,-1,-1,-1,-1,-1,-1,-1,-1,-1,-1,-1,-1,-1,-1,-1,-1,-1,-1,-1,-1,-1,-1,-1,-1,-1,-1,-1,-1,-1,-1,-1,-1,-1,-1,-1,-1,-1,-1,-1,-1,-1,-1,-1,-1,-1,-1,-1,-1,-1],"loss_changes":[1.02544506E9,2.1686509E8,8.990086E7,3.814192E7,2.9365624E7,1.8790304E7,1.2678528E7,3.391856E6,1.369982E7,1.814356E7,7.340128E6,2.81848E6,9.131584E6,2.194528E6,0E0,5.30656E5,1.836744E6,2.737668E6,2.201214E6,8.993214E6,4.761484E6,4.670675E5,2.116144E6,1.078844E6,4.31788E5,2.10928E6,1.95272E6,0E0,6.35296E5,2.3308E4,2.2904E5,5.2244E5,4.98353E5,5.28128E5,2.552376E6,8.110206E5,7.8810875E5,1.717549E6,2.250453E6,1.32058E6,1.112888E6,1.064925E5,0E0,1.062532E6,2.40797E5,2.20316E5,8.0007E4,4.64156E5,1.13179E5,2.5176E5,1.138016E6,3.32879E5,9.84016E5,7.376E5,1.2613E5,0E0,0E0,0E0,0E0,0E0,0E0,0E0,0E0,0E0,0E0,0E0,0E0,0E0,0E0,0E0,0E0,0E0,0E0,0E0,0E0,0E0,0E0,0E0,0E0,0E0,0E0,0E0,0E0,0E0,0E0,0E0,0E0,0E0,0E0,0E0,0E0,0E0,0E0,0E0,0E0,0E0,0E0,0E0,0E0,0E0,0E0,0E0,0E0,0E0,0E0],"parents":[2147483647,0,0,1,1,2,2,3,3,4,4,5,5,6,6,7,7,8,8,9,9,10,10,11,11,12,12,13,13,15,15,16,16,17,17,18,18,19,19,20,20,21,21,22,22,23,23,24,24,25,25,26,26,28,28,29,29,30,30,31,31,32,32,33,33,34,34,35,35,36,36,37,37,38,38,39,39,40,40,41,41,43,43,44,44,45,45,46,46,47,47,48,48,49,49,50,50,51,51,52,52,53,53,54,54],"right_children":[2,4,6,8,10,12,14,16,18,20,22,24,26,28,-1,30,32,34,36,38,40,42,44,46,48,50,52,-1,54,56,58,60,62,64,66,68,70,72,74,76,78,80,-1,82,84,86,88,90,92,94,96,98,100,102,104,-1,-1,-1,-1,-1,-1,-1,-1,-1,-1,-1,-1,-1,-1,-1,-1,-1,-1,-1,-1,-1,-1,-1,-1,-1,-1,-1,-1,-1,-1,-1,-1,-1,-1,-1,-1,-1,-1,-1,-1,-1,-1,-1,-1,-1,-1,-1,-1,-1,-1],"split_conditions":[7.115E2,2.635E2,3.1E2,1.305E2,1.45E2,3.96E-1,8.72E-1,6.475E1,5.9E1,4.56E2,3.715E2,9.61E2,1.059E3,9.37E2,5.8323067E1,3.7E1,3.4E1,-5.4E1,2.1525E2,1.4E1,1.8E1,3.07E2,4.07E2,-9E0,2.3931566E-1,-1.92E2,3.2E2,3.0871845E1,1.24275E3,0E0,2E0,1.08E2,6.6E1,5.4719902E1,1.79E2,1.22E2,1.7733333E2,3.405E2,5.2E1,5.92E2,5.595E2,2.25E2,1.2964722E1,5.0125E2,5.48E2,6.89E2,2.9654678E2,-6.21E2,3.8802698E2,1.7122751E2,1.145E3,1.319E3,1.2299166E3,8.06E2,1E-2,-8.153209E0,-7.61499E0,-7.277931E0,-6.4395776E0,-6.2765517E0,-5.335361E0,-4.7279344E0,-2.9840367E0,-5.196166E0,-3.4967217E0,-4.012258E0,-1.8876609E0,-1.0033396E0,1.2683754E0,4.344183E0,1.4970951E0,-1.3886195E0,1.0544525E0,3.4498806E0,8.966191E0,4.4940476E0,7.8055725E0,7.7756915E0,1.1444208E1,5.6020055E0,7.6950493E0,1.16442375E1,1.5297084E1,1.845744E1,2.8041245E1,8.912484E0,1.27776785E1,1.8459938E1,1.2599277E1,1.261097E1,2.703105E1,1.8880642E1,8.853439E0,3.35338E0,1.5163196E1,2.4820974E1,2.9673014E1,1.6120827E1,2.7217077E1,3.4387436E1,4.4849678E1,3.1274704E1,4.384249E1,3.2439735E1,5.861253E1],"split_indices":[14,14,54,14,54,27,26,14,54,14,14,14,9,13,0,13,54,54,14,54,54,54,54,54,20,54,2,0,14,54,54,14,54,17,14,54,18,14,4,13,14,54,0,14,13,13,15,54,19,17,13,9,18,54,40,0,0,0,0,0,0,0,0,0,0,0,0,0,0,0,0,0,0,0,0,0,0,0,0,0,0,0,0,0,0,0,0,0,0,0,0,0,0,0,0,0,0,0,0,0,0,0,0,0,0],"split_type":[0,0,0,0,0,0,0,0,0,0,0,0,0,0,0,0,0,0,0,0,0,0,0,0,0,0,0,0,0,0,0,0,0,0,0,0,0,0,0,0,0,0,0,0,0,0,0,0,0,0,0,0,0,0,0,0,0,0,0,0,0,0,0,0,0,0,0,0,0,0,0,0,0,0,0,0,0,0,0,0,0,0,0,0,0,0,0,0,0,0,0,0,0,0,0,0,0,0,0,0,0,0,0,0,0],"sum_hessian":[3.666803E4,3.4290652E4,2.377378E3,2.4933898E4,9.356756E3,1.705252E3,6.72126E2,1.3669056E4,1.1264843E4,7.93263E3,1.424126E3,3.86E2,1.319252E3,4.7241733E2,1.9970866E2,5.2500474E3,8.419008E3,8.299465E3,2.965378E3,5.3696694E3,2.5629607E3,5.1170868E2,9.1241736E2,2.74E2,1.12E2,8.4083466E2,4.7841733E2,4.6E1,4.2641733E2,1.6755433E3,3.574504E3,6.540756E3,1.878252E3,2.327252E3,5.9722124E3,1.896252E3,1.069126E3,2.8784172E3,2.491252E3,1.6978347E3,8.65126E2,4.8670868E2,2.5E1,8.6341736E2,4.9E1,1.77E2,9.7E1,7.2E1,4E1,3.8E1,8.0283466E2,4.3E1,4.3541733E2,4.0041733E2,2.6E1,8.98126E2,7.7741736E2,1.5685433E3,2.0059607E3,4.1617954E3,2.3789607E3,1.2598347E3,6.1841736E2,1.6865433E3,6.407087E2,2.302126E3,3.6700867E3,1.3418347E3,5.5441736E2,3.7441733E2,6.947087E2,1.4837086E3,1.3947086E3,2.2905432E3,2.0070866E2,1.303126E3,3.9470868E2,3.8270868E2,4.8241733E2,4.0470868E2,8.2E1,4.9170868E2,3.7170868E2,2.3E1,2.6E1,9.2E1,8.5E1,8E1,1.7E1,9E0,6.3E1,3.4E1,6E0,6E0,3.2E1,6.05126E2,1.9770866E2,1.8E1,2.5E1,3.9941733E2,3.6E1,2.4E1,3.7641733E2,5E0,2.1E1],"tree_param":{"num_deleted":"0","num_feature":"56","num_nodes":"105","size_leaf_vector":"1"}},{"base_weights":[4.325029E0,-3.761723E1,5.8757324E2,-7.741786E1,1.0429779E2,4.22143E2,7.251638E2,-1.0941947E2,-2.0087633E1,6.942694E1,1.8309258E2,3.0725012E2,5.0679977E2,6.5735913E2,1.0323562E3,-1.2413934E2,-8.25745E1,-2.4474413E1,8.896873E1,4.87717E1,1.3678627E2,2.7331158E2,1.5197366E2,2.2058008E2,3.3611307E2,6.1964075E2,4.5100616E2,8.1615643E2,5.761905E2,6.127182E2,1.0909529E3,-1.369498E2,-1.1506497E2,-8.892031E1,-2.4631195E1,-5.31719E1,-1.4247715E1,-3.866367E1,9.282197E1,2.7963154E1,8.694154E1,9.865606E1,1.6455603E2,2.0041748E2,3.1780072E2,9.7675186E1,1.811432E2,2.5311024E2,1.55676E2,2.5706152E2,3.533396E2,4.1534467E2,6.337166E2,3.3652216E2,4.6736105E2,4.1357212E1,1.8347536E1,5.207735E2,7.106334E2,1.650345E1,6.7611725E2,3.1004505E1,5.5179607E1,-6.49403E0,-7.1591773E0,-5.907302E0,-3.707322E0,-4.2133803E0,-5.18614E0,1.2472888E-1,-3.532065E0,-3.239132E0,-2.1468623E0,2.0793042E0,-9.6349496E-1,-5.427928E-1,-2.8480637E0,4.3562517E0,4.901193E0,4.399294E-1,2.4558525E0,2.4441006E0,5.2507567E0,3.0079439E0,5.6040053E0,8.044491E0,1.5932643E1,3.455003E0,1.0929686E1,1.43839035E1,1.7359434E1,4.300073E0,6.156561E0,1.005038E1,3.841051E0,9.476851E0,1.4464047E1,5.3428454E0,1.0318802E1,1.115647E1,1.604742E1,6.414029E0,1.7834974E1,2.4500402E1,1.4726038E1,3.1941862E1,1.796746E1,1.0501518E1,1.7880896E1,2.2072857E1,2.4507301E1,1.892958E1,2.6768354E1,4.641717E1,3.4565166E1,1.9725126E1,3.621889E1],"categories":[],"categories_nodes":[],"categories_segments":[],"categories_sizes":[],"default_left":[0,0,0,0,0,0,0,0,0,0,0,0,0,0,0,0,0,0,0,0,0,0,0,0,0,0,0,0,0,0,0,0,0,0,0,0,0,0,0,0,0,0,0,0,0,0,0,0,0,0,0,0,0,0,0,0,0,0,0,0,0,0,0,0,0,0,0,0,0,0,0,0,0,0,0,0,0,0,0,0,0,0,0,0,0,0,0,0,0,0,0,0,0,0,0,0,0,0,0,0,0,0,0,0,0,0,0,0,0,0,0,0,0,0,0,0,0],"id":10,"left_children":[1,3,5,7,9,11,13,15,17,19,21,23,25,27,29,31,33,35,37,39,41,43,45,47,49,51,53,55,57,59,61,63,65,67,69,71,73,75,77,79,81,83,85,87,89,91,93,95,97,99,101,103,105,107,109,-1,-1,111,113,-1,115,-1,-1,-1,-1,-1,-1,-1,-1,-1,-1,-1,-1,-1,-1,-1,-1,-1,-1,-1,-1,-1,-1,-1,-1,-1,-1,-1,-1,-1,-1,-1,-1,-1,-1,-1,-1,-1,-1,-1,-1,-1,-1,-1,-1,-1,-1,-1,-1,-1,-1,-1,-1,-1,-1,-1,-1],"loss_changes":[9.3351315E8,2.010913E8,5.796557E7,5.100813E7,2.1413152E7,1.1173936E7,2.840384E7,7.04056E6,4.767779E6,7.516544E6,6.67308E6,1.168348E6,3.933104E6,1.4307776E7,5.496176E6,1.323632E6,2.3224E6,2.809901E6,1.9314175E5,3.285658E6,1.326826E6,1.921372E6,2.802412E6,2.28696E5,4.13932E5,3.65608E5,6.87872E5,1.598704E6,5.307968E6,3.68084E5,6.1712E5,1.91688E5,8.4232E5,3.83644E5,7.807412E5,2.9617E5,1.9810862E6,5.4806504E3,2.53675E3,1.0863355E6,9.99232E5,2.707555E5,3.62464E5,5.45083E5,2.35052E5,1.74946E5,2.382436E6,1.3598E5,8.929675E4,8.00795E4,1.8234E5,8.96325E3,5.512E4,8.4939E4,1.5136E4,0E0,0E0,9.24768E5,2.8268E5,0E0,6.7481E4,0E0,0E0,0E0,0E0,0E0,0E0,0E0,0E0,0E0,0E0,0E0,0E0,0E0,0E0,0E0,0E0,0E0,0E0,0E0,0E0,0E0,0E0,0E0,0E0,0E0,0E0,0E0,0E0,0E0,0E0,0E0,0E0,0E0,0E0,0E0,0E0,0E0,0E0,0E0,0E0,0E0,0E0,0E0,0E0,0E0,0E0,0E0,0E0,0E0,0E0,0E0,0E0,0E0,0E0,0E0,0E0],"parents":[2147483647,0,0,1,1,2,2,3,3,4,4,5,5,6,6,7,7,8,8,9,9,10,10,11,11,12,12,13,13,14,14,15,15,16,16,17,17,18,18,19,19,20,20,21,21,22,22,23,23,24,24,25,25,26,26,27,27,28,28,29,29,30,30,31,31,32,32,33,33,34,34,35,35,36,36,37,37,38,38,39,39,40,40,41,41,42,42,43,43,44,44,45,45,46,46,47,47,48,48,49,49,50,50,51,51,52,52,53,53,54,54,57,57,58,58,60,60],"right_children":[2,4,6,8,10,12,14,16,18,20,22,24,26,28,30,32,34,36,38,40,42,44,46,48,50,52,54,56,58,60,62,64,66,68,70,72,74,76,78,80,82,84,86,88,90,92,94,96,98,100,102,104,106,108,110,-1,-1,112,114,-1,116,-1,-1,-1,-1,-1,-1,-1,-1,-1,-1,-1,-1,-1,-1,-1,-1,-1,-1,-1,-1,-1,-1,-1,-1,-1,-1,-1,-1,-1,-1,-1,-1,-1,-1,-1,-1,-1,-1,-1,-1,-1,-1,-1,-1,-1,-1,-1,-1,-1,-1,-1,-1,-1,-1,-1,-1],"split_conditions":[7.115E2,2.8758334E2,9.37E2,1.63125E2,5.35E2,9.61E2,1.557E3,1.08E2,1.8450106E0,4.49E2,2.21E2,2E0,4.7E-2,9.63E2,6.66E-1,6E1,1.95E2,1.92E2,4.62E-1,1.0835054E2,4.7575E2,1.7294374E2,4.14E2,9E-3,6.28E2,1.113E3,3.9E-2,7.31E2,1.512E3,4E0,3.2E2,3.2E1,5.1E-1,1.6E1,7.4E1,2.07E2,7E1,7E-3,3.67E2,2.96E2,2.6E2,3.63E2,8.76E2,4.95E2,8.2E2,3.43E2,8.94E-1,6.09E2,7.49E2,1.4E-2,2.1E2,3.2E2,3.77E-1,8.25E2,2.9759015E2,4.1357212E1,1.8347536E1,8.79E2,2E-3,1.650345E1,1.059E3,3.1004505E1,5.5179607E1,-6.49403E0,-7.1591773E0,-5.907302E0,-3.707322E0,-4.2133803E0,-5.18614E0,1.2472888E-1,-3.532065E0,-3.239132E0,-2.1468623E0,2.0793042E0,-9.6349496E-1,-5.427928E-1,-2.8480637E0,4.3562517E0,4.901193E0,4.399294E-1,2.4558525E0,2.4441006E0,5.2507567E0,3.0079439E0,5.6040053E0,8.044491E0,1.5932643E1,3.455003E0,1.0929686E1,1.43839035E1,1.7359434E1,4.300073E0,6.156561E0,1.005038E1,3.841051E0,9.476851E0,1.4464047E1,5.3428454E0,1.0318802E1,1.115647E1,1.604742E1,6.414029E0,1.7834974E1,2.4500402E1,1.4726038E1,3.1941862E1,1.796746E1,1.0501518E1,1.7880896E1,2.2072857E1,2.4507301E1,1.892958E1,2.6768354E1,4.641717E1,3.4565166E1,1.9725126E1,3.621889E1],"split_indices":[14,18,13,16,7,14,8,14,55,13,12,48,42,13,27,14,13,7,35,17,14,19,13,37,13,7,24,8,13,53,2,11,44,53,11,9,2,32,7,13,2,14,13,8,7,11,40,13,12,36,12,2,39,8,19,0,0,7,34,0,9,0,0,0,0,0,0,0,0,0,0,0,0,0,0,0,0,0,0,0,0,0,0,0,0,0,0,0,0,0,0,0,0,0,0,0,0,0,0,0,0,0,0,0,0,0,0,0,0,0,0,0,0,0,0,0,0],"split_type":[0,0,0,0,0,0,0,0,0,0,0,0,0,0,0,0,0,0,0,0,0,0,0,0,0,0,0,0,0,0,0,0,0,0,0,0,0,0,0,0,0,0,0,0,0,0,0,0,0,0,0,0,0,0,0,0,0,0,0,0,0,0,0,0,0,0,0,0,0,0,0,0,0,0,0,0,0,0,0,0,0,0,0,0,0,0,0,0,0,0,0,0,0,0,0,0,0,0,0,0,0,0,0,0,0,0,0,0,0,0,0,0,0,0,0,0,0],"sum_hessian":[3.81587E4,3.5599613E4,2.5590867E3,2.7802693E4,7.7969214E3,1.1638347E3,1.395252E3,1.7842268E4,9.960425E3,5.406252E3,2.3906694E3,4.9570868E2,6.68126E2,1.1455433E3,2.4970866E2,1.1521221E4,6.3210474E3,9.576008E3,3.8441733E2,4.1388345E3,1.2674174E3,6.11126E2,1.7795433E3,1.26E2,3.6970868E2,2.1770866E2,4.5041733E2,3.8441733E2,7.61126E2,3.2E1,2.1770866E2,4.771339E3,6.749882E3,5.69663E3,6.2441736E2,2.5148347E3,7.0611733E3,1.1E1,3.7341733E2,2.6797087E3,1.459126E3,5.36E2,7.3141736E2,2.3370866E2,3.7741733E2,6.2341736E2,1.156126E3,8.2E1,4.4E1,6.9E1,3.0070868E2,1.6E1,2.0170866E2,5.9E1,3.9141733E2,3.7441733E2,1E1,5.4241736E2,2.1870866E2,7E0,2.5E1,7E0,2.1070866E2,2.2460867E3,2.525252E3,6.275465E3,4.7441733E2,4.339378E3,1.357252E3,3.9341733E2,2.31E2,1.1757086E3,1.339126E3,5.82126E2,6.4790474E3,5E0,6E0,1.8670866E2,1.8670866E2,1.4067086E3,1.273E3,4.71E2,9.88126E2,1.4E2,3.96E2,7.1641736E2,1.5E1,2.9E1,2.0470866E2,1.9170866E2,1.8570866E2,4.3041733E2,1.93E2,9.7041736E2,1.8570866E2,3.2E1,5E1,2.4E1,2E1,4.8E1,2.1E1,5E0,2.9570868E2,8E0,8E0,1.9670866E2,5E0,1E1,4.9E1,1.9270866E2,1.9870866E2,5.3E1,4.8941733E2,1.4E1,2.0470866E2,5E0,2E1],"tree_param":{"num_deleted":"0","num_feature":"56","num_nodes":"117","size_leaf_vector":"1"}},{"base_weights":[3.5817292E0,-3.8695183E1,4.4510135E2,-8.922518E1,4.972932E1,2.697989E2,5.8170337E2,-1.1085339E2,-5.3446846E1,1.3528853E1,1.26129425E2,2.1463647E2,5.0342838E2,4.6744058E2,8.0563245E2,-1.21031166E2,-9.124131E1,-6.7698814E1,-2.6235983E1,-1.1930458E1,5.869523E1,1.0828172E2,2.1847943E2,3.264721E2,1.4431781E2,4.4265067E2,9.4438715E2,1.9124045E2,5.1966284E2,7.007524E2,1.0335973E3,-1.395176E2,-1.1566342E2,-9.489129E1,-6.0728905E1,-7.065862E1,1.4663219E1,-4.1588825E1,-6.1940756E0,-1.5267079E1,7.262205E1,1.16298004E2,4.5050545E1,7.786102E1,1.6143506E2,1.5885117E2,2.617905E2,1.3375636E2,3.3541818E2,1.0693729E2,2.7215073E2,4.25492E2,6.379785E2,1.88134E1,1.0566963E3,1.4556781E2,2.4544403E2,3.7475903E1,4.690141E2,6.0874866E2,4.0939114E1,2.3446943E1,5.22907E1,-7.5535326E0,-6.8036838E0,-5.907983E0,-4.6234703E0,-5.0005565E0,-3.6957557E0,-3.654136E0,-2.164625E0,-3.997744E0,-2.8571975E0,8.2381165E-1,-2.2090747E0,-2.4308124E0,-9.857311E-1,1.0242817E0,-8.996627E-1,-1.5694491E0,-1.7581051E-2,4.1468115E0,-9.572973E-1,6.052358E0,-3.5479832E-1,1.1872203E0,3.8732498E0,4.5575004E0,4.6855146E-1,6.7556643E0,9.389674E0,3.9800172E0,8.826072E0,1.3211238E1,5.756267E0,9.15947E0,3.3830335E0,6.8775673E0,1.696268E1,3.7787926E0,8.358239E0,6.6971545E0,1.7096336E1,1.0210337E1,2.1677664E1,1.3520737E1,3.792702E1,3.647662E1,6.541874E1,6.093813E0,1.0012228E1,1.1525859E1,2.0799185E1,1.3924727E1,2.5215693E1,1.204156E1,3.2161842E1],"categories":[],"categories_nodes":[],"categories_segments":[],"categories_sizes":[],"default_left":[0,0,0,0,0,0,0,0,0,0,0,0,0,0,0,0,0,0,0,0,0,0,0,0,0,0,0,0,0,0,0,0,0,0,0,0,0,0,0,0,0,0,0,0,0,0,0,0,0,0,0,0,0,0,0,0,0,0,0,0,0,0,0,0,0,0,0,0,0,0,0,0,0,0,0,0,0,0,0,0,0,0,0,0,0,0,0,0,0,0,0,0,0,0,0,0,0,0,0,0,0,0,0,0,0,0,0,0,0,0,0,0,0,0,0,0,0],"id":11,"left_children":[1,3,5,7,9,11,13,15,17,19,21,23,25,27,29,31,33,35,37,39,41,43,45,47,49,51,53,55,57,59,61,63,65,67,69,71,73,75,77,79,81,83,85,87,89,91,93,95,97,99,101,103,105,-1,107,109,111,-1,113,115,-1,-1,-1,-1,-1,-1,-1,-1,-1,-1,-1,-1,-1,-1,-1,-1,-1,-1,-1,-1,-1,-1,-1,-1,-1,-1,-1,-1,-1,-1,-1,-1,-1,-1,-1,-1,-1,-1,-1,-1,-1,-1,-1,-1,-1,-1,-1,-1,-1,-1,-1,-1,-1,-1,-1,-1,-1],"loss_changes":[7.151974E8,1.5624101E8,8.002144E7,1.7213088E7,3.516789E7,1.8814072E7,4.775104E7,2.756992E6,3.250168E6,9.923432E6,6.714436E6,9.307568E6,7.078152E6,1.7899072E7,1.44368E7,8.89456E5,5.22328E5,1.34242E6,8.871326E5,1.5582175E6,2.439774E6,5.530284E6,1.665772E6,7.4542E5,3.469294E6,5.58652E5,1.70782E6,4.59356E5,1.1858752E7,4.251408E6,8.7328E5,6.0936E4,3.98896E5,4.47244E5,1.06556E5,6.62772E5,2.1177836E4,2.50033E5,3.945359E5,1.2770092E6,2.0008588E5,3.496235E5,1.736257E6,1.985225E6,8.39648E5,3.790235E5,1.05716E5,5.9461062E4,2.85244E5,1.06043E6,1.545345E6,3.22948E5,5.92432E5,0E0,1.268478E6,1.193495E5,1.331495E5,0E0,5.65752E6,3.013504E6,0E0,0E0,0E0,0E0,0E0,0E0,0E0,0E0,0E0,0E0,0E0,0E0,0E0,0E0,0E0,0E0,0E0,0E0,0E0,0E0,0E0,0E0,0E0,0E0,0E0,0E0,0E0,0E0,0E0,0E0,0E0,0E0,0E0,0E0,0E0,0E0,0E0,0E0,0E0,0E0,0E0,0E0,0E0,0E0,0E0,0E0,0E0,0E0,0E0,0E0,0E0,0E0,0E0,0E0,0E0,0E0,0E0],"parents":[2147483647,0,0,1,1,2,2,3,3,4,4,5,5,6,6,7,7,8,8,9,9,10,10,11,11,12,12,13,13,14,14,15,15,16,16,17,17,18,18,19,19,20,20,21,21,22,22,23,23,24,24,25,25,26,26,27,27,28,28,29,29,30,30,31,31,32,32,33,33,34,34,35,35,36,36,37,37,38,38,39,39,40,40,41,41,42,42,43,43,44,44,45,45,46,46,47,47,48,48,49,49,50,50,51,51,52,52,54,54,55,55,56,56,58,58,59,59],"right_children":[2,4,6,8,10,12,14,16,18,20,22,24,26,28,30,32,34,36,38,40,42,44,46,48,50,52,54,56,58,60,62,64,66,68,70,72,74,76,78,80,82,84,86,88,90,92,94,96,98,100,102,104,106,-1,108,110,112,-1,114,116,-1,-1,-1,-1,-1,-1,-1,-1,-1,-1,-1,-1,-1,-1,-1,-1,-1,-1,-1,-1,-1,-1,-1,-1,-1,-1,-1,-1,-1,-1,-1,-1,-1,-1,-1,-1,-1,-1,-1,-1,-1,-1,-1,-1,-1,-1,-1,-1,-1,-1,-1,-1,-1,-1,-1,-1,-1],"split_conditions":[6.55E2,2.23E2,4E-3,1.25E2,4.01E2,1.113E3,2.79E-1,9.4E1,5.398204E1,2.91E2,7.74E-1,2E-3,3.8802698E2,6.82E2,1.557E3,4.9E1,3.88E-1,6.95E-1,1.9E2,9.35E-1,1.22E2,1.4941895E2,1.9E1,1.9E1,4E4,6.7E-1,2.9E-2,1.9286899E2,6.83E2,8.41E-1,3.7E1,2.2E1,3.1596893E1,3.8709484E1,1.6E1,4.3181347E1,7E1,2.91E2,3.1E4,1.82E2,7E1,1E-3,3.83E2,5.2E-1,5.79E2,5.02E2,1.369281E0,2E0,1.404528E2,3.98E2,5.6E2,1E-1,-9.350162E-1,1.88134E1,2.5E-2,6.06E2,2.73E-1,3.7475903E1,9.17E2,2.0849457E2,4.0939114E1,2.3446943E1,5.22907E1,-7.5535326E0,-6.8036838E0,-5.907983E0,-4.6234703E0,-5.0005565E0,-3.6957557E0,-3.654136E0,-2.164625E0,-3.997744E0,-2.8571975E0,8.2381165E-1,-2.2090747E0,-2.4308124E0,-9.857311E-1,1.0242817E0,-8.996627E-1,-1.5694491E0,-1.7581051E-2,4.1468115E0,-9.572973E-1,6.052358E0,-3.5479832E-1,1.1872203E0,3.8732498E0,4.5575004E0,4.6855146E-1,6.7556643E0,9.389674E0,3.9800172E0,8.826072E0,1.3211238E1,5.756267E0,9.15947E0,3.3830335E0,6.8775673E0,1.696268E1,3.7787926E0,8.358239E0,6.6971545E0,1.7096336E1,1.0210337E1,2.1677664E1,1.3520737E1,3.792702E1,3.647662E1,6.541874E1,6.093813E0,1.0012228E1,1.1525859E1,2.0799185E1,1.3924727E1,2.5215693E1,1.204156E1,3.2161842E1],"split_indices":[7,7,34,8,7,7,40,7,19,10,43,35,19,8,8,7,36,46,7,5,12,19,52,4,0,26,30,19,8,5,4,12,19,19,52,19,2,10,0,10,11,24,8,28,8,7,55,51,19,11,8,26,20,0,42,12,5,0,8,17,0,0,0,0,0,0,0,0,0,0,0,0,0,0,0,0,0,0,0,0,0,0,0,0,0,0,0,0,0,0,0,0,0,0,0,0,0,0,0,0,0,0,0,0,0,0,0,0,0,0,0,0,0,0,0,0,0],"split_type":[0,0,0,0,0,0,0,0,0,0,0,0,0,0,0,0,0,0,0,0,0,0,0,0,0,0,0,0,0,0,0,0,0,0,0,0,0,0,0,0,0,0,0,0,0,0,0,0,0,0,0,0,0,0,0,0,0,0,0,0,0,0,0,0,0,0,0,0,0,0,0,0,0,0,0,0,0,0,0,0,0,0,0,0,0,0,0,0,0,0,0,0,0,0,0,0,0,0,0,0,0,0,0,0,0,0,0,0,0,0,0,0,0,0,0,0,0],"sum_hessian":[3.831341E4,3.4966195E4,3.3472126E3,2.2250938E4,1.271526E4,1.467252E3,1.8799607E3,1.3866473E4,8.384465E3,8.628173E3,4.0870867E3,1.1885433E3,2.7870868E2,1.2468347E3,6.33126E2,9.125551E3,4.7409214E3,5.501504E3,2.8829607E3,5.518339E3,3.1098347E3,3.4269607E3,6.60126E2,4.5741733E2,7.31126E2,2.4670866E2,3.2E1,1.99E2,1.0478347E3,4.3641733E2,1.9670866E2,2.0478347E3,7.077717E3,4.232504E3,5.0841733E2,5.3107954E3,1.9070866E2,1.6318347E3,1.251126E3,5.30963E3,2.0870866E2,5.94126E2,2.5157087E3,2.181126E3,1.2458347E3,2.7970868E2,3.8041733E2,2.1E1,4.3641733E2,5.67126E2,1.64E2,2.2970866E2,1.7E1,6E0,2.6E1,1.1E2,8.9E1,1.8670866E2,8.61126E2,2.4870866E2,1.8770866E2,5E0,1.9170866E2,4.6041733E2,1.5874174E3,6.3862993E3,6.9141736E2,3.3990867E3,8.3341736E2,2.9570868E2,2.1270866E2,3.1435432E3,2.167252E3,1.8570866E2,5E0,1.234126E3,3.9770868E2,3.8341733E2,8.677087E2,2.5510867E3,2.7585432E3,1.8770866E2,2.1E1,5.72126E2,2.2E1,1.519E3,9.967087E2,1.8264174E3,3.5470868E2,6.2641736E2,6.1941736E2,5.2E1,2.2770866E2,3.7341733E2,7E0,1.1E1,1E1,9E0,4.2741733E2,3.7441733E2,1.9270866E2,5.6E1,1.08E2,9E0,2.2070866E2,5E0,1.2E1,1.3E1,1.3E1,7.9E1,3.1E1,8.4E1,5E0,1.36E2,7.25126E2,2.2E1,2.2670866E2],"tree_param":{"num_deleted":"0","num_feature":"56","num_nodes":"117","size_leaf_vector":"1"}},{"base_weights":[-3.9847556E-1,-3.5763397E1,4.783567E2,-7.442796E1,8.789422E1,3.0017426E2,5.5619257E2,-1.0191266E2,-2.7934303E1,5.6238247E1,1.7004579E2,1.9496735E2,3.5123657E2,6.934846E2,5.152717E2,-1.1654064E2,-8.524222E1,-5.9486206E1,-1.9459436E1,3.9539585E1,1.20519165E2,2.4313857E2,1.4470538E2,1.6197295E2,2.3308202E2,3.0910196E2,4.022302E2,3.1110587E2,7.3445233E2,4.5865808E2,6.0827716E2,-1.2843758E2,-1.0849684E2,-8.850499E1,-4.8707962E1,-2.9049725E1,-6.6066605E1,7.117168E1,-2.1682928E1,8.665081E1,3.019786E1,1.0013581E2,1.5086389E2,1.7651747E2,2.8363373E2,9.343387E1,1.7467514E2,5.535481E1,1.7012874E2,2.2273643E2,1.8634468E1,1.4491005E2,3.176694E2,2.5916586E2,4.1375842E2,2.5173528E2,4.4349356E2,3.7476658E1,2.4592244E2,3.0773685E2,4.6866666E2,5.719906E2,7.801063E2,-6.672303E0,-5.9230323E0,-2.4634857E0,-5.5460625E0,-4.9306965E0,-4.091173E0,-3.2773888E0,-3.4761664E-1,-3.206236E0,-1.416667E0,-3.5888512E0,-2.8077743E0,-2.368148E0,3.7922451E0,-1.2571081E0,1.7329797E0,-8.6491644E-1,4.56484E0,7.198023E-2,2.5541065E0,2.665896E0,5.46166E0,6.8426623E0,8.465457E0,3.4946256E0,9.991253E0,1.4402076E1,4.511286E0,3.9186342E0,6.1021986E0,9.799478E0,3.5312831E0,4.7573256E0,-1.3899027E-2,6.412956E0,9.274068E0,8.255018E0,1.3021845E1,3.968118E0,9.717276E0,1.5575421E1,2.6098877E1,6.7674904E0,1.4469638E1,1.9837967E1,2.5571264E1,1.3613449E1,7.804404E0,9.774955E0,2.963449E1,6.531411E0,1.5082015E1,1.0337889E1,1.7904873E1,2.1555647E1,2.5238098E1,1.903268E1,2.955781E1,2.9665592E1,4.7700027E1],"categories":[],"categories_nodes":[],"categories_segments":[],"categories_sizes":[],"default_left":[0,0,0,0,0,0,0,0,0,0,0,0,0,0,0,0,0,0,0,0,0,0,0,0,0,0,0,0,0,0,0,0,0,0,0,0,0,0,0,0,0,0,0,0,0,0,0,0,0,0,0,0,0,0,0,0,0,0,0,0,0,0,0,0,0,0,0,0,0,0,0,0,0,0,0,0,0,0,0,0,0,0,0,0,0,0,0,0,0,0,0,0,0,0,0,0,0,0,0,0,0,0,0,0,0,0,0,0,0,0,0,0,0,0,0,0,0,0,0,0,0,0,0],"id":12,"left_children":[1,3,5,7,9,11,13,15,17,19,21,23,25,27,29,31,33,35,37,39,41,43,45,47,49,51,53,55,57,59,61,63,65,67,69,71,73,75,77,79,81,83,85,87,89,91,93,95,97,99,-1,101,103,105,107,109,111,-1,113,115,117,119,121,-1,-1,-1,-1,-1,-1,-1,-1,-1,-1,-1,-1,-1,-1,-1,-1,-1,-1,-1,-1,-1,-1,-1,-1,-1,-1,-1,-1,-1,-1,-1,-1,-1,-1,-1,-1,-1,-1,-1,-1,-1,-1,-1,-1,-1,-1,-1,-1,-1,-1,-1,-1,-1,-1,-1,-1,-1,-1,-1,-1],"loss_changes":[6.616393E8,1.7399403E8,3.711392E7,3.542296E7,2.2533512E7,4.333464E6,1.014656E7,4.238656E6,2.753305E6,6.713444E6,4.429824E6,3.01752E5,1.058232E6,6.451312E6,7.325408E6,8.73832E5,9.66772E5,4.34799E5,1.6381562E6,2.184524E6,7.82844E5,1.620184E6,2.738064E6,1.19254E5,9.45805E4,3.83962E5,2.97936E5,2.2626475E5,2.647728E6,1.21792E6,2.941936E6,1.70892E5,7.90196E5,4.96968E5,4.7074075E5,7.9588438E3,9.73845E4,1.11451875E5,1.5460055E6,3.984885E5,2.4916918E6,3.241235E5,1.10257E5,5.74269E5,3.00834E5,2.762835E5,2.492472E6,2.6600625E4,6.42435E4,2.11189E5,0E0,3.9635375E4,2.01986E5,3.938225E4,1.71728E5,2.0306875E4,3.2804875E5,0E0,4.4065312E4,2.25941E5,9.26128E5,1.43392E6,2.422216E6,0E0,0E0,0E0,0E0,0E0,0E0,0E0,0E0,0E0,0E0,0E0,0E0,0E0,0E0,0E0,0E0,0E0,0E0,0E0,0E0,0E0,0E0,0E0,0E0,0E0,0E0,0E0,0E0,0E0,0E0,0E0,0E0,0E0,0E0,0E0,0E0,0E0,0E0,0E0,0E0,0E0,0E0,0E0,0E0,0E0,0E0,0E0,0E0,0E0,0E0,0E0,0E0,0E0,0E0,0E0,0E0,0E0,0E0,0E0,0E0],"parents":[2147483647,0,0,1,1,2,2,3,3,4,4,5,5,6,6,7,7,8,8,9,9,10,10,11,11,12,12,13,13,14,14,15,15,16,16,17,17,18,18,19,19,20,20,21,21,22,22,23,23,24,24,25,25,26,26,27,27,28,28,29,29,30,30,31,31,32,32,33,33,34,34,35,35,36,36,37,37,38,38,39,39,40,40,41,41,42,42,43,43,44,44,45,45,46,46,47,47,48,48,49,49,51,51,52,52,53,53,54,54,55,55,56,56,58,58,59,59,60,60,61,61,62,62],"right_children":[2,4,6,8,10,12,14,16,18,20,22,24,26,28,30,32,34,36,38,40,42,44,46,48,50,52,54,56,58,60,62,64,66,68,70,72,74,76,78,80,82,84,86,88,90,92,94,96,98,100,-1,102,104,106,108,110,112,-1,114,116,118,120,122,-1,-1,-1,-1,-1,-1,-1,-1,-1,-1,-1,-1,-1,-1,-1,-1,-1,-1,-1,-1,-1,-1,-1,-1,-1,-1,-1,-1,-1,-1,-1,-1,-1,-1,-1,-1,-1,-1,-1,-1,-1,-1,-1,-1,-1,-1,-1,-1,-1,-1,-1,-1,-1,-1,-1,-1,-1,-1,-1,-1],"split_conditions":[6.54E2,2.81E2,8.76E2,1.49375E2,5.35E2,7.3E2,6.83E2,8.025E1,1.74375E2,4.49E2,2.24E2,6.1E2,8.82E2,2.1696579E2,1.059E3,5.7E1,6.81E-1,7E1,8.9E1,1.22E2,4.85E2,1.7294374E2,4.14E2,3.639597E1,8.38E-1,1.4941895E2,3.1E-2,1.3E-2,2.3822493E2,1.8E-1,1.307E3,5.4E1,-9.9270886E-1,1.06625E2,1.6E1,5.090514E1,1.65E2,2.7E2,3.25375E2,2.27E2,3.19875E2,3.63875E2,5.54625E2,1.4941895E2,5.72E2,3.43E2,5.22E-1,2.42E-1,6E-3,1E0,1.8634468E1,5.41E2,1.429E3,5.03E2,3.79E2,6.6312265E-1,5.03E2,3.7476658E1,5.35E2,2E0,1.111E3,4.45E-1,6.4E-1,-6.672303E0,-5.9230323E0,-2.4634857E0,-5.5460625E0,-4.9306965E0,-4.091173E0,-3.2773888E0,-3.4761664E-1,-3.206236E0,-1.416667E0,-3.5888512E0,-2.8077743E0,-2.368148E0,3.7922451E0,-1.2571081E0,1.7329797E0,-8.6491644E-1,4.56484E0,7.198023E-2,2.5541065E0,2.665896E0,5.46166E0,6.8426623E0,8.465457E0,3.4946256E0,9.991253E0,1.4402076E1,4.511286E0,3.9186342E0,6.1021986E0,9.799478E0,3.5312831E0,4.7573256E0,-1.3899027E-2,6.412956E0,9.274068E0,8.255018E0,1.3021845E1,3.968118E0,9.717276E0,1.5575421E1,2.6098877E1,6.7674904E0,1.4469638E1,1.9837967E1,2.5571264E1,1.3613449E1,7.804404E0,9.774955E0,2.963449E1,6.531411E0,1.5082015E1,1.0337889E1,1.7904873E1,2.1555647E1,2.5238098E1,1.903268E1,2.955781E1,2.9665592E1,4.7700027E1],"split_indices":[13,7,13,16,7,7,8,16,16,13,12,8,9,19,9,9,37,11,10,12,7,19,13,15,32,19,5,37,19,5,7,13,21,16,52,19,13,8,16,13,16,16,16,19,8,11,46,41,27,49,0,11,8,12,12,20,12,0,8,48,13,26,27,0,0,0,0,0,0,0,0,0,0,0,0,0,0,0,0,0,0,0,0,0,0,0,0,0,0,0,0,0,0,0,0,0,0,0,0,0,0,0,0,0,0,0,0,0,0,0,0,0,0,0,0,0,0,0,0,0,0,0,0],"split_type":[0,0,0,0,0,0,0,0,0,0,0,0,0,0,0,0,0,0,0,0,0,0,0,0,0,0,0,0,0,0,0,0,0,0,0,0,0,0,0,0,0,0,0,0,0,0,0,0,0,0,0,0,0,0,0,0,0,0,0,0,0,0,0,0,0,0,0,0,0,0,0,0,0,0,0,0,0,0,0,0,0,0,0,0,0,0,0,0,0,0,0,0,0,0,0,0,0,0,0,0,0,0,0,0,0,0,0,0,0,0,0,0,0,0,0,0,0,0,0,0,0,0,0],"sum_hessian":[3.9076246E4,3.6389156E4,2.6870867E3,2.7721693E4,8.667465E3,8.1841736E2,1.8686693E3,1.7421686E4,1.0300008E4,6.2577954E3,2.4096694E3,2.69E2,5.4941736E2,4.2541733E2,1.443252E3,9.276095E3,8.145591E3,2.1795432E3,8.120465E3,4.9686694E3,1.289126E3,6.18126E2,1.7915433E3,1.47E2,1.22E2,3.0470868E2,2.4470866E2,4.2E1,3.8341733E2,9.0083466E2,5.4241736E2,3.7357954E3,5.5402993E3,7.476465E3,6.69126E2,3.8841733E2,1.791126E3,1.9370866E2,7.926756E3,8.2083466E2,4.1478345E3,7.737087E2,5.1541736E2,2.3570866E2,3.8241733E2,6.6241736E2,1.129126E3,1.1E1,1.36E2,1.16E2,6E0,1.6E1,2.8870868E2,2E1,2.2470866E2,3.1E1,1.1E1,3.7141733E2,1.2E1,5.8E1,8.4283466E2,4.5141733E2,9.1E1,2.4789607E3,1.2568347E3,2.1870866E2,5.321591E3,2.9696694E3,4.5067954E3,4.7641733E2,1.9270866E2,6E0,3.8241733E2,1.1324174E3,6.587087E2,7E0,1.8670866E2,7.468756E3,4.58E2,3.5E1,7.8583466E2,1.7454174E3,2.4024172E3,1.27E2,6.467087E2,2.9770868E2,2.1770866E2,4.3E1,1.9270866E2,3.7341733E2,9E0,4.3641733E2,2.26E2,9.3641736E2,1.9270866E2,6E0,5E0,3.9E1,9.7E1,4.8E1,6.8E1,8E0,8E0,2.8270868E2,6E0,5E0,1.5E1,1.9570866E2,2.9E1,2.4E1,7E0,5E0,6E0,5E0,7E0,2.1E1,3.7E1,4.1941733E2,4.2341733E2,4.3E1,4.0841733E2,4.6E1,4.5E1],"tree_param":{"num_deleted":"0","num_feature":"56","num_nodes":"123","size_leaf_vector":"1"}},{"base_weights":[4.241275E0,-3.1750631E1,4.931604E2,-6.857175E1,7.448179E1,4.1769827E2,8.620904E2,-8.4452896E1,5.373959E0,2.1251404E1,1.4420973E2,3.1050238E2,4.9146393E2,3.730346E1,4.9030766E1,-1.0201825E2,-5.1400433E1,-1.3974091E1,5.4308205E1,-4.1476016E0,9.481387E1,1.0172476E2,2.2218788E2,2.602599E2,4.0119266E2,4.374627E2,5.4756647E2,-1.1212212E2,-8.8886314E1,-9.148422E1,-4.368936E1,-4.5346188E1,7.35953E0,3.9894123E1,1.25410034E2,-4.3742256E1,3.0472862E1,5.2347343E1,1.3810075E2,9.043902E1,2.2640717E2,1.9211592E2,3.9085983E2,1.0782032E2,2.9332196E2,3.672343E2,5.6955237E2,4.0865677E2,2.4563244E1,5.025048E2,6.2078925E2,-6.0336385E0,-5.0788274E0,-5.005403E0,-3.7775745E0,-5.332126E0,-4.110774E0,-3.2481878E0,-1.3144058E0,-3.1731775E0,-1.7978293E0,-4.3096137E-1,1.3061713E0,1.1126494E0,3.497179E0,4.9857416E0,8.076608E0,-3.039975E0,-9.27627E-1,9.0357E-1,3.8043084E0,-1.0494118E0,3.1755369E0,5.062724E0,7.8452144E0,3.6131551E0,5.609994E0,9.597465E0,1.472628E1,8.109504E0,1.1108767E1,1.70237E1,2.6494368E1,3.0803192E0,7.6412163E0,1.0628766E1,1.5097281E1,1.1523993E1,1.9665277E1,2.3032866E1,3.6148643E1,1.5462026E1,2.0769154E1,2.3602985E1,2.6509903E1,2.9859528E1,3.990854E1],"categories":[],"categories_nodes":[],"categories_segments":[],"categories_sizes":[],"default_left":[0,0,0,0,0,0,0,0,0,0,0,0,0,0,0,0,0,0,0,0,0,0,0,0,0,0,0,0,0,0,0,0,0,0,0,0,0,0,0,0,0,0,0,0,0,0,0,0,0,0,0,0,0,0,0,0,0,0,0,0,0,0,0,0,0,0,0,0,0,0,0,0,0,0,0,0,0,0,0,0,0,0,0,0,0,0,0,0,0,0,0,0,0,0,0,0,0],"id":13,"left_children":[1,3,5,7,9,11,13,15,17,19,21,23,25,-1,-1,27,29,31,33,35,37,39,41,43,45,47,49,51,53,55,57,59,61,63,65,67,69,71,73,75,77,79,81,83,85,87,89,91,-1,93,95,-1,-1,-1,-1,-1,-1,-1,-1,-1,-1,-1,-1,-1,-1,-1,-1,-1,-1,-1,-1,-1,-1,-1,-1,-1,-1,-1,-1,-1,-1,-1,-1,-1,-1,-1,-1,-1,-1,-1,-1,-1,-1,-1,-1,-1,-1],"loss_changes":[6.5797005E8,1.3623454E8,7.101651E7,3.0372856E7,3.3270904E7,1.6693024E7,5.242048E6,1.2355728E7,4.330875E6,9.501211E6,1.2834048E7,3.864808E6,3.578432E6,0E0,0E0,1.834496E6,2.280262E6,2.194492E6,1.3233378E6,5.1840475E6,2.391892E6,3.51697E6,6.862912E6,2.80794E6,1.5557E6,8.0208E5,1.714272E6,6.95824E5,8.97704E5,1.58606E5,2.2935E6,2.2347175E5,5.855584E5,5.704859E5,1.8620675E5,7.5685075E5,1.1399761E6,5.420035E5,4.31459E5,9.0433E5,4.31639E5,1.00996E6,1.262534E6,2.027045E5,2.5776E5,8.35248E5,5.02175E5,1.57288E5,0E0,7.4568E4,4.84752E5,0E0,0E0,0E0,0E0,0E0,0E0,0E0,0E0,0E0,0E0,0E0,0E0,0E0,0E0,0E0,0E0,0E0,0E0,0E0,0E0,0E0,0E0,0E0,0E0,0E0,0E0,0E0,0E0,0E0,0E0,0E0,0E0,0E0,0E0,0E0,0E0,0E0,0E0,0E0,0E0,0E0,0E0,0E0,0E0,0E0,0E0],"parents":[2147483647,0,0,1,1,2,2,3,3,4,4,5,5,6,6,7,7,8,8,9,9,10,10,11,11,12,12,15,15,16,16,17,17,18,18,19,19,20,20,21,21,22,22,23,23,24,24,25,25,26,26,27,27,28,28,29,29,30,30,31,31,32,32,33,33,34,34,35,35,36,36,37,37,38,38,39,39,40,40,41,41,42,42,43,43,44,44,45,45,46,46,47,47,49,49,50,50],"right_children":[2,4,6,8,10,12,14,16,18,20,22,24,26,-1,-1,28,30,32,34,36,38,40,42,44,46,48,50,52,54,56,58,60,62,64,66,68,70,72,74,76,78,80,82,84,86,88,90,92,-1,94,96,-1,-1,-1,-1,-1,-1,-1,-1,-1,-1,-1,-1,-1,-1,-1,-1,-1,-1,-1,-1,-1,-1,-1,-1,-1,-1,-1,-1,-1,-1,-1,-1,-1,-1,-1,-1,-1,-1,-1,-1,-1,-1,-1,-1,-1,-1],"split_conditions":[8.21E2,2.75E2,3.1E2,5.6E1,2.5E1,-8.1E1,1.557E3,1.38125E2,1.2E2,5.35E2,4.37E2,1.194E3,1.063E3,3.730346E1,4.9030766E1,8.65E1,-5.7E1,1.54E2,2.02E2,-9.4E1,-1.88E2,2.02E2,2.02E2,-2.79E2,3.8802698E2,1.66E2,2.4144087E2,7E0,-3E0,-9.1E1,1.96E2,9.4E1,2.19E2,2.02E2,2.57E2,4.08E2,4.17E2,5.99E2,6.1E2,8.7E1,3.1E2,5.18E2,4.07E2,-4.02E2,9.02E2,-4.02E2,7.01E-1,2.3E1,2.4563244E1,-1E0,1.307E3,-6.0336385E0,-5.0788274E0,-5.005403E0,-3.7775745E0,-5.332126E0,-4.110774E0,-3.2481878E0,-1.3144058E0,-3.1731775E0,-1.7978293E0,-4.3096137E-1,1.3061713E0,1.1126494E0,3.497179E0,4.9857416E0,8.076608E0,-3.039975E0,-9.27627E-1,9.0357E-1,3.8043084E0,-1.0494118E0,3.1755369E0,5.062724E0,7.8452144E0,3.6131551E0,5.609994E0,9.597465E0,1.472628E1,8.109504E0,1.1108767E1,1.70237E1,2.6494368E1,3.0803192E0,7.6412163E0,1.0628766E1,1.5097281E1,1.1523993E1,1.9665277E1,2.3032866E1,3.6148643E1,1.5462026E1,2.0769154E1,2.3602985E1,2.6509903E1,2.9859528E1,3.990854E1],"split_indices":[7,7,54,54,54,54,8,16,54,7,7,7,7,0,0,14,54,7,54,54,54,54,54,54,19,54,17,54,54,54,7,7,7,7,54,7,7,7,7,54,54,7,54,54,7,54,28,54,0,54,7,0,0,0,0,0,0,0,0,0,0,0,0,0,0,0,0,0,0,0,0,0,0,0,0,0,0,0,0,0,0,0,0,0,0,0,0,0,0,0,0,0,0,0,0,0,0],"split_type":[0,0,0,0,0,0,0,0,0,0,0,0,0,0,0,0,0,0,0,0,0,0,0,0,0,0,0,0,0,0,0,0,0,0,0,0,0,0,0,0,0,0,0,0,0,0,0,0,0,0,0,0,0,0,0,0,0,0,0,0,0,0,0,0,0,0,0,0,0,0,0,0,0,0,0,0,0,0,0,0,0,0,0,0,0,0,0,0,0,0,0,0,0,0,0,0,0],"sum_hessian":[3.7388867E4,3.482607E4,2.5627954E3,2.5862314E4,8.963756E3,2.129378E3,4.3341733E2,2.128981E4,4.572504E3,5.0839604E3,3.8797954E3,8.70126E2,1.259252E3,2.2270866E2,2.1070866E2,1.3900473E4,7.389339E3,3.277378E3,1.295126E3,3.7798347E3,1.304126E3,2.5129607E3,1.3668347E3,5.6241736E2,3.0770868E2,6.46126E2,6.13126E2,7.851717E3,6.048756E3,1.1904174E3,6.1989214E3,1.326126E3,1.951252E3,1.078126E3,2.17E2,1.763126E3,2.0167086E3,6.5941736E2,6.447087E2,2.3059607E3,2.07E2,1.1618347E3,2.05E2,1.01E2,4.6141733E2,2.5870868E2,4.9E1,4.2641733E2,2.1970866E2,3.8441733E2,2.2870866E2,4.3302124E3,3.521504E3,3.2810867E3,2.7676694E3,4.4770868E2,7.427087E2,2.7878347E3,3.4110867E3,4.5070868E2,8.7541736E2,1.054126E3,8.97126E2,6.8041736E2,3.9770868E2,1.29E2,8.8E1,1.0504174E3,7.127087E2,1.5867086E3,4.3E2,8.7E1,5.7241736E2,2.2E2,4.2470868E2,1.2588347E3,1.047126E3,1.4E2,6.7E1,5.8541736E2,5.7641736E2,1.53E2,5.2E1,5.1E1,5E1,4.7E1,4.1441733E2,4.3E1,2.1570866E2,3.1E1,1.8E1,3E1,3.9641733E2,1.9170866E2,1.9270866E2,2.0570866E2,2.3E1],"tree_param":{"num_deleted":"0","num_feature":"56","num_nodes":"97","size_leaf_vector":"1"}},{"base_weights":[7.3216643E0,-2.8845566E1,4.8028058E2,-6.585759E1,8.831016E1,3.930597E2,7.501836E2,-8.9707466E1,-2.0496622E1,6.130979E1,1.663963E2,2.823611E2,4.5113074E2,6.734217E2,4.66069E1,-9.52956E1,-3.7749203E1,-4.760963E1,9.896706E0,1.0258666E-1,1.053248E2,8.387944E1,2.2527429E2,2.0436911E2,3.2138467E2,3.900791E2,5.0901355E2,6.54633E2,4.4306824E1,-1.0661022E2,-7.944505E1,-4.893415E1,1.1040463E1,-7.168814E1,-3.6628574E1,-1.7568132E1,3.594056E1,-4.1879066E1,1.5008779E1,8.333601E1,1.5390901E2,8.34145E0,1.0309806E2,2.1397795E2,4.1820178E2,1.5546974E2,3.190236E2,1.866057E2,3.3625998E2,1.7176654E2,4.1557846E2,4.6821255E2,5.688112E2,4.740519E2,3.419218E1,-5.8185573E0,-4.7938266E0,-4.714759E0,-3.3147457E0,-2.834544E0,-1.2089795E0,-1.0852547E0,9.5351183E-1,-4.308311E0,-2.3784277E0,-3.0181897E0,-9.2817956E-1,-1.1229879E0,3.1460755E0,9.268696E-1,2.8808687E0,-3.2174995E0,-1.5007837E0,-1.3027173E0,2.2496288E0,3.335163E0,8.421932E0,7.040256E0,1.3421969E1,-2.4285514E0,2.0231051E0,3.732064E0,7.577771E0,9.910413E0,1.4229627E1,1.664789E1,2.4818268E1,3.8387928E0,9.479279E0,1.2809142E1,1.9693419E1,5.3662567E0,1.2253047E1,1.6380688E1,2.853221E1,4.4166656E0,1.1142528E1,1.9568768E1,2.3131182E1,9.78326E0,2.4028181E1,2.1231869E1,2.9452E1,1.34497595E1,2.451721E1],"categories":[],"categories_nodes":[],"categories_segments":[],"categories_sizes":[],"default_left":[0,0,0,0,0,0,0,0,0,0,0,0,0,0,0,0,0,0,0,0,0,0,0,0,0,0,0,0,0,0,0,0,0,0,0,0,0,0,0,0,0,0,0,0,0,0,0,0,0,0,0,0,0,0,0,0,0,0,0,0,0,0,0,0,0,0,0,0,0,0,0,0,0,0,0,0,0,0,0,0,0,0,0,0,0,0,0,0,0,0,0,0,0,0,0,0,0,0,0,0,0,0,0,0,0],"id":14,"left_children":[1,3,5,7,9,11,13,15,17,19,21,23,25,27,-1,29,31,33,35,37,39,41,43,45,47,49,51,53,-1,55,57,59,61,63,65,67,69,71,73,75,77,79,81,83,85,87,89,91,93,95,97,99,101,103,-1,-1,-1,-1,-1,-1,-1,-1,-1,-1,-1,-1,-1,-1,-1,-1,-1,-1,-1,-1,-1,-1,-1,-1,-1,-1,-1,-1,-1,-1,-1,-1,-1,-1,-1,-1,-1,-1,-1,-1,-1,-1,-1,-1,-1,-1,-1,-1,-1,-1,-1],"loss_changes":[6.667144E8,1.5700875E8,6.488576E7,2.9766096E7,1.83178E7,1.3337888E7,8.801696E6,5.232432E6,7.8150945E6,1.7406376E7,1.0829752E7,2.136012E6,4.650688E6,1.331808E6,0E0,2.91152E6,9.570835E5,1.322629E6,3.1993548E6,1.6925702E6,4.002256E6,1.3513005E6,2.749184E6,1.318347E6,9.00376E5,3.670168E6,1.444176E6,2.014688E6,0E0,9.83856E5,1.318804E6,2.7245825E5,8.658117E4,5.437335E5,1.475739E6,8.586479E5,8.6495475E5,1.8698775E5,2.4587062E6,3.654216E6,1.71784E6,3.4929697E5,1.012414E6,1.316068E6,3.07719E5,4.49872E5,2.376705E5,2.0538188E5,6.87244E5,2.8715525E5,5.0332E5,1.327856E6,5.65528E5,8.5179E4,0E0,0E0,0E0,0E0,0E0,0E0,0E0,0E0,0E0,0E0,0E0,0E0,0E0,0E0,0E0,0E0,0E0,0E0,0E0,0E0,0E0,0E0,0E0,0E0,0E0,0E0,0E0,0E0,0E0,0E0,0E0,0E0,0E0,0E0,0E0,0E0,0E0,0E0,0E0,0E0,0E0,0E0,0E0,0E0,0E0,0E0,0E0,0E0,0E0,0E0,0E0],"parents":[2147483647,0,0,1,1,2,2,3,3,4,4,5,5,6,6,7,7,8,8,9,9,10,10,11,11,12,12,13,13,15,15,16,16,17,17,18,18,19,19,20,20,21,21,22,22,23,23,24,24,25,25,26,26,27,27,29,29,30,30,31,31,32,32,33,33,34,34,35,35,36,36,37,37,38,38,39,39,40,40,41,41,42,42,43,43,44,44,45,45,46,46,47,47,48,48,49,49,50,50,51,51,52,52,53,53],"right_children":[2,4,6,8,10,12,14,16,18,20,22,24,26,28,-1,30,32,34,36,38,40,42,44,46,48,50,52,54,-1,56,58,60,62,64,66,68,70,72,74,76,78,80,82,84,86,88,90,92,94,96,98,100,102,104,-1,-1,-1,-1,-1,-1,-1,-1,-1,-1,-1,-1,-1,-1,-1,-1,-1,-1,-1,-1,-1,-1,-1,-1,-1,-1,-1,-1,-1,-1,-1,-1,-1,-1,-1,-1,-1,-1,-1,-1,-1,-1,-1,-1,-1,-1,-1,-1,-1,-1,-1],"split_conditions":[7.115E2,2.7925E2,3.1E2,1.7025E2,5.35E2,8.76E2,8.72E-1,4.8E1,1.6E1,2.6E1,-9E1,9.77E2,1.113E3,9.86E2,4.66069E1,1E2,1.07E2,-7.3E1,1.99E2,-1.34E2,4.08E2,-2.52E2,1.66E2,1E2,-4E2,7.7E1,1.145E3,8.06E2,4.4306824E1,4E0,-2E1,1.12E2,1.05E2,2.83E2,2.26E2,1.49E2,2.47E2,4.37E2,3.46E2,2.25E2,1.84E2,6.42E2,6.81E2,7.3E2,3.07E2,-1.92E2,7.3E2,1.181E3,-2.4E1,-1.79E2,2.56E2,-4.02E2,1E-3,5.37E2,3.419218E1,-5.8185573E0,-4.7938266E0,-4.714759E0,-3.3147457E0,-2.834544E0,-1.2089795E0,-1.0852547E0,9.5351183E-1,-4.308311E0,-2.3784277E0,-3.0181897E0,-9.2817956E-1,-1.1229879E0,3.1460755E0,9.268696E-1,2.8808687E0,-3.2174995E0,-1.5007837E0,-1.3027173E0,2.2496288E0,3.335163E0,8.421932E0,7.040256E0,1.3421969E1,-2.4285514E0,2.0231051E0,3.732064E0,7.577771E0,9.910413E0,1.4229627E1,1.664789E1,2.4818268E1,3.8387928E0,9.479279E0,1.2809142E1,1.9693419E1,5.3662567E0,1.2253047E1,1.6380688E1,2.853221E1,4.4166656E0,1.1142528E1,1.9568768E1,2.3131182E1,9.78326E0,2.4028181E1,2.1231869E1,2.9452E1,1.34497595E1,2.451721E1],"split_indices":[14,16,54,14,7,13,26,54,54,54,54,7,7,7,0,7,54,54,7,54,7,54,54,54,54,54,13,54,0,54,54,7,7,7,7,54,7,7,7,54,54,7,7,7,54,54,7,7,54,54,54,54,37,7,0,0,0,0,0,0,0,0,0,0,0,0,0,0,0,0,0,0,0,0,0,0,0,0,0,0,0,0,0,0,0,0,0,0,0,0,0,0,0,0,0,0,0,0,0,0,0,0,0,0,0],"split_type":[0,0,0,0,0,0,0,0,0,0,0,0,0,0,0,0,0,0,0,0,0,0,0,0,0,0,0,0,0,0,0,0,0,0,0,0,0,0,0,0,0,0,0,0,0,0,0,0,0,0,0,0,0,0,0,0,0,0,0,0,0,0,0,0,0,0,0,0,0,0,0,0,0,0,0,0,0,0,0,0,0,0,0,0,0,0,0,0,0,0,0,0,0,0,0,0,0,0,0,0,0,0,0,0,0],"sum_hessian":[3.8974535E4,3.6206742E4,2.7677954E3,2.7514693E4,8.692047E3,2.0936694E3,6.74126E2,1.8032559E4,9.482134E3,6.4600864E3,2.2319607E3,7.2241736E2,1.371252E3,4.7741733E2,1.9670866E2,1.6280725E4,1.7518347E3,5.0112124E3,4.4709214E3,2.7027087E3,3.757378E3,9.3041736E2,1.3015433E3,2.43E2,4.7941733E2,6.71126E2,7.00126E2,4.4241733E2,3.5E1,9.49626E3,6.784465E3,1.425126E3,3.2670868E2,1.5678347E3,3.443378E3,2.176252E3,2.2946694E3,7.077087E2,1.995E3,2.5885432E3,1.1688347E3,1.89E2,7.4141736E2,1.2315433E3,7E1,1.72E2,7.1E1,4.9E1,4.3041733E2,7.1E1,6.00126E2,4.2141733E2,2.7870868E2,6.4E1,3.7841733E2,4.968339E3,4.5279214E3,3.183378E3,3.6010867E3,1.084126E3,3.41E2,6.4E1,2.6270868E2,9.78126E2,5.897087E2,1.487126E3,1.956252E3,2.052252E3,1.24E2,1.2738347E3,1.02083466E3,2.43E2,4.6470868E2,8.42E2,1.153E3,2.1668347E3,4.2170868E2,1.0508347E3,1.18E2,6.8E1,1.21E2,4.6870868E2,2.7270868E2,1.00983466E3,2.2170866E2,3.6E1,3.4E1,5.3E1,1.19E2,4.1E1,3E1,2.2E1,2.7E1,4.1741733E2,1.3E1,2.8E1,4.3E1,4.0241733E2,1.9770866E2,1.9E1,4.0241733E2,3.7E1,2.4170866E2,6E0,5.8E1],"tree_param":{"num_deleted":"0","num_feature":"56","num_nodes":"105","size_leaf_vector":"1"}},{"base_weights":[1.0456702E0,-2.5682377E1,4.677706E2,-6.1694584E1,6.945904E1,3.0616437E2,6.674272E2,-9.128445E1,-2.8453154E1,2.7719215E1,1.1356776E2,1.7338365E2,3.5042218E2,5.972378E2,8.7379407E2,-9.845361E1,-6.5040565E1,-4.4479507E1,1.6278706E1,-3.8158197E0,1.25229454E2,7.43664E1,1.7075171E2,1.2247779E2,2.4535661E2,3.2651065E2,5.327709E2,5.2398584E2,3.259435E1,2.7998663E1,8.934764E2,-1.0956926E2,-8.818686E1,-7.873915E1,-5.02224E1,-5.3648975E1,-1.3268417E1,-9.316197E0,4.223615E1,-4.4209507E1,1.261393E1,8.595714E1,2.3909122E2,5.4020428E1,1.3815335E2,1.4480989E2,2.4599422E2,5.4703373E1,1.4647182E2,1.6235068E2,2.8746045E2,2.5469876E2,1.9108131E1,4.465514E2,7.046914E2,3.6985666E2,5.613129E2,4.3696297E1,5.8448254E1,-6.048885E0,-5.2237296E0,-5.1545577E0,-4.128734E0,-4.2022967E0,-2.4803333E0,-2.8484604E0,-1.4780988E0,-4.0119996E0,-2.182813E0,-1.4892563E0,1.4789404E0,-1.104564E0,1.5712755E0,1.9318346E0,8.310602E0,-3.5745137E0,-1.4314029E0,-1.3862909E0,2.1291034E0,3.1995394E0,6.5244102E0,8.501681E0,1.3709511E1,8.653246E-1,4.0707397E0,6.462732E0,1.5894971E1,6.423494E0,8.812057E0,1.1130301E1,1.9459051E1,-2.7450953E0,4.1816263E0,4.676258E0,9.289206E0,2.8989894E0,8.929172E0,1.2670443E1,1.7898535E1,7.516023E0,1.4007273E1,6.206443E0,2.3547148E1,2.741804E1,4.3346725E1,9.988875E0,1.9427435E1,2.7430546E1,3.952986E1],"categories":[],"categories_nodes":[],"categories_segments":[],"categories_sizes":[],"default_left":[0,0,0,0,0,0,0,0,0,0,0,0,0,0,0,0,0,0,0,0,0,0,0,0,0,0,0,0,0,0,0,0,0,0,0,0,0,0,0,0,0,0,0,0,0,0,0,0,0,0,0,0,0,0,0,0,0,0,0,0,0,0,0,0,0,0,0,0,0,0,0,0,0,0,0,0,0,0,0,0,0,0,0,0,0,0,0,0,0,0,0,0,0,0,0,0,0,0,0,0,0,0,0,0,0,0,0,0,0],"id":15,"left_children":[1,3,5,7,9,11,13,15,17,19,21,23,25,27,29,31,33,35,37,39,41,43,45,47,49,51,53,55,-1,-1,57,59,61,63,65,67,69,71,73,75,77,79,81,83,85,87,89,91,93,95,97,99,-1,101,103,105,107,-1,-1,-1,-1,-1,-1,-1,-1,-1,-1,-1,-1,-1,-1,-1,-1,-1,-1,-1,-1,-1,-1,-1,-1,-1,-1,-1,-1,-1,-1,-1,-1,-1,-1,-1,-1,-1,-1,-1,-1,-1,-1,-1,-1,-1,-1,-1,-1,-1,-1,-1,-1],"loss_changes":[4.6267734E8,1.201989E8,6.461619E7,2.502888E7,1.7731848E7,6.47468E6,1.2482912E7,2.526664E6,8.59354E6,1.5223741E7,1.0485576E7,9.95789E5,3.458592E6,2.352928E6,8.9368E5,1.196888E6,5.83007E5,2.524866E6,2.1014118E6,2.4838598E6,5.389328E6,3.600749E6,3.680732E6,2.619135E5,3.55195E5,2.856496E6,1.09338E6,1.47632E6,0E0,0E0,1.13072E5,2.82152E5,4.51632E5,2.27846E5,1.9231775E5,1.808838E6,1.419988E6,8.2988125E5,6.94276E5,4.5792675E5,3.2177315E6,8.730985E5,7.04024E5,2.120264E6,1.033269E6,7.05726E5,1.543232E6,1.472799E5,2.36534E5,5.9085375E4,8.93E4,8.22952E5,0E0,4.60532E5,2.85373E5,1.13065E5,2.46784E5,0E0,0E0,0E0,0E0,0E0,0E0,0E0,0E0,0E0,0E0,0E0,0E0,0E0,0E0,0E0,0E0,0E0,0E0,0E0,0E0,0E0,0E0,0E0,0E0,0E0,0E0,0E0,0E0,0E0,0E0,0E0,0E0,0E0,0E0,0E0,0E0,0E0,0E0,0E0,0E0,0E0,0E0,0E0,0E0,0E0,0E0,0E0,0E0,0E0,0E0,0E0,0E0],"parents":[2147483647,0,0,1,1,2,2,3,3,4,4,5,5,6,6,7,7,8,8,9,9,10,10,11,11,12,12,13,13,14,14,15,15,16,16,17,17,18,18,19,19,20,20,21,21,22,22,23,23,24,24,25,25,26,26,27,27,30,30,31,31,32,32,33,33,34,34,35,35,36,36,37,37,38,38,39,39,40,40,41,41,42,42,43,43,44,44,45,45,46,46,47,47,48,48,49,49,50,50,51,51,53,53,54,54,55,55,56,56],"right_children":[2,4,6,8,10,12,14,16,18,20,22,24,26,28,30,32,34,36,38,40,42,44,46,48,50,52,54,56,-1,-1,58,60,62,64,66,68,70,72,74,76,78,80,82,84,86,88,90,92,94,96,98,100,-1,102,104,106,108,-1,-1,-1,-1,-1,-1,-1,-1,-1,-1,-1,-1,-1,-1,-1,-1,-1,-1,-1,-1,-1,-1,-1,-1,-1,-1,-1,-1,-1,-1,-1,-1,-1,-1,-1,-1,-1,-1,-1,-1,-1,-1,-1,-1,-1,-1,-1,-1,-1,-1,-1,-1],"split_conditions":[7.115E2,2.74E2,2.48E2,1.3075E2,2.6E1,9.43E2,1.314E3,2.4E1,5.6E1,5.99E2,4.08E2,4E0,1.24275E3,8.06E2,4.79E-1,7.3E1,8E1,2.59E2,1.99E2,-1.53E2,-1.07E2,1.66E2,1.22E2,6.81E2,6.55E2,-8.5E1,7.5E-2,7.96E2,3.259435E1,2.7998663E1,8.1E4,-7E0,-2.9E1,8.1E1,6.5E1,-4E1,-1.3E1,1.35E2,1.84E2,4.48E2,3.43E2,-1.88E2,7.96E2,3.09E2,4.07E2,5.11E2,3.1E2,-1.92E2,-1.88E2,5.02E2,8.67E2,-4E2,1.9108131E1,2.5867392E2,6.66E-1,5.31E2,1.194E3,4.3696297E1,5.8448254E1,-6.048885E0,-5.2237296E0,-5.1545577E0,-4.128734E0,-4.2022967E0,-2.4803333E0,-2.8484604E0,-1.4780988E0,-4.0119996E0,-2.182813E0,-1.4892563E0,1.4789404E0,-1.104564E0,1.5712755E0,1.9318346E0,8.310602E0,-3.5745137E0,-1.4314029E0,-1.3862909E0,2.1291034E0,3.1995394E0,6.5244102E0,8.501681E0,1.3709511E1,8.653246E-1,4.0707397E0,6.462732E0,1.5894971E1,6.423494E0,8.812057E0,1.1130301E1,1.9459051E1,-2.7450953E0,4.1816263E0,4.676258E0,9.289206E0,2.8989894E0,8.929172E0,1.2670443E1,1.7898535E1,7.516023E0,1.4007273E1,6.206443E0,2.3547148E1,2.741804E1,4.3346725E1,9.988875E0,1.9427435E1,2.7430546E1,3.952986E1],"split_indices":[14,14,54,14,54,7,8,54,54,7,7,54,14,54,27,7,7,7,7,54,54,54,54,7,7,54,24,7,0,0,0,54,54,54,54,54,54,54,54,7,7,54,7,7,54,7,54,54,54,7,7,54,0,19,27,7,7,0,0,0,0,0,0,0,0,0,0,0,0,0,0,0,0,0,0,0,0,0,0,0,0,0,0,0,0,0,0,0,0,0,0,0,0,0,0,0,0,0,0,0,0,0,0,0,0,0,0,0,0],"split_type":[0,0,0,0,0,0,0,0,0,0,0,0,0,0,0,0,0,0,0,0,0,0,0,0,0,0,0,0,0,0,0,0,0,0,0,0,0,0,0,0,0,0,0,0,0,0,0,0,0,0,0,0,0,0,0,0,0,0,0,0,0,0,0,0,0,0,0,0,0,0,0,0,0,0,0,0,0,0,0,0,0,0,0,0,0,0,0,0,0,0,0,0,0,0,0,0,0,0,0,0,0,0,0,0,0,0,0,0,0],"sum_hessian":[3.708745E4,3.507949E4,2.0079607E3,2.5447607E4,9.631882E3,1.111126E3,8.9683466E2,1.3462347E4,1.198526E4,4.9496694E3,4.6822124E3,2.79E2,8.32126E2,6.72126E2,2.2470866E2,1.0571678E4,2.8906694E3,8.823882E3,3.161378E3,3.7408347E3,1.2088347E3,2.779252E3,1.9029607E3,1.65E2,1.14E2,7.38126E2,9.4E1,2.9170868E2,3.8041733E2,1.5E1,2.0970866E2,5.071339E3,5.500339E3,1.4998347E3,1.3908347E3,6.81963E3,2.004252E3,1.592126E3,1.569252E3,1.081126E3,2.6597087E3,9.00126E2,3.0870868E2,2.1085432E3,6.707087E2,1.417252E3,4.8570868E2,4.4E1,1.21E2,4E1,7.4E1,3.2470868E2,4.1341733E2,6.5E1,2.9E1,5.9E1,2.3270866E2,1.9970866E2,1E1,1.5585433E3,3.5127954E3,1.4998347E3,4.000504E3,1.267126E3,2.3270866E2,1.047126E3,3.4370868E2,1.8608347E3,4.9587954E3,1.4468347E3,5.5741736E2,1.2124174E3,3.7970868E2,1.526252E3,4.3E1,3.9170868E2,6.8941736E2,1.1337086E3,1.526E3,6.0441736E2,2.9570868E2,1.06E2,2.0270866E2,9.017087E2,1.2068347E3,6.407087E2,3E1,9.3583466E2,4.8141733E2,4.1970868E2,6.6E1,9E0,3.5E1,5.3E1,6.8E1,6E0,3.4E1,5.3E1,2.1E1,6.5E1,2.5970868E2,5E0,6E1,1.7E1,1.2E1,7E0,5.2E1,2.2370866E2,9E0],"tree_param":{"num_deleted":"0","num_feature":"56","num_nodes":"109","size_leaf_vector":"1"}},{"base_weights":[-3.313176E0,-3.501498E1,4.2995032E2,-6.3077454E1,5.67125E1,2.8134683E2,5.2472943E2,-8.303859E1,-2.6558302E1,3.1338573E1,1.2413267E2,2.2764766E2,3.4057468E2,4.7298892E2,7.9572473E2,-9.391733E1,-6.926942E1,-2.9324709E1,